<?xml version="1.0"?>
<opencv_storage>
<cascade>
  <stageType>BOOST</stageType>
  <featureType>HAAR</featureType>
  <height>24</height>
  <width>24</width>
  <stageParams>
    <boostType>GAB</boostType>
    <minHitRate>9.9500000476837158e-01</minHitRate>
    <maxFalseAlarm>5.0000000000000000e-01</maxFalseAlarm>
    <weightTrimRate>9.4999998807907104e-01</weightTrimRate>
    <maxDepth>1</maxDepth>
    <maxWeakCount>100</maxWeakCount></stageParams>
  <featureParams>
    <maxCatCount>0</maxCatCount>
    <featSize>1</featSize>
    <mode>BASIC</mode></featureParams>
  <stageNum>21</stageNum>
  <stages>
    <!-- stage 0 -->
    <_>
      <maxWeakCount>6</maxWeakCount>
      <stageThreshold>-1.4664452075958252e+00</stageThreshold>
      <weakClassifiers>
        <_>
          <internalNodes>
            0 -1 90 -1.2187880277633667e-01</internalNodes>
          <leafValues>
            4.8387095332145691e-01 -7.9110252857208252e-01</leafValues></_>
        <_>
          <internalNodes>
            0 -1 4 6.5823085606098175e-02</internalNodes>
          <leafValues>
            -5.9472298622131348e-01 4.5716631412506104e-01</leafValues></_>
        <_>
          <internalNodes>
            0 -1 162 -1.0514119639992714e-02</internalNodes>
          <leafValues>
            5.2631568908691406e-01 -5.1769399642944336e-01</leafValues></_>
        <_>
          <internalNodes>
            0 -1 153 -4.2950574308633804e-02</internalNodes>
          <leafValues>
            6.2951564788818359e-01 -3.5488420724868774e-01</leafValues></_>
        <_>
          <internalNodes>
            0 -1 56 1.2747044092975557e-04</internalNodes>
          <leafValues>
            -5.1587384939193726e-01 4.1757559776306152e-01</leafValues></_>
        <_>
          <internalNodes>
            0 -1 164 1.8453970551490784e-04</internalNodes>
          <leafValues>
            -6.1984342336654663e-01 3.2343238592147827e-01</leafValues></_></weakClassifiers></_>
    <!-- stage 1 -->
    <_>
      <maxWeakCount>6</maxWeakCount>
      <stageThreshold>-1.8395066261291504e+00</stageThreshold>
      <weakClassifiers>
        <_>
          <internalNodes>
            0 -1 38 -1.9872188568115234e-01</internalNodes>
          <leafValues>
            3.0097088217735291e-01 -7.6659959554672241e-01</leafValues></_>
        <_>
          <internalNodes>
            0 -1 107 4.0918618440628052e-02</internalNodes>
          <leafValues>
            -4.5012500882148743e-01 4.8246711492538452e-01</leafValues></_>
        <_>
          <internalNodes>
            0 -1 24 -8.8465434964746237e-04</internalNodes>
          <leafValues>
            3.9719527959823608e-01 -5.1746058464050293e-01</leafValues></_>
        <_>
          <internalNodes>
            0 -1 199 -6.0607250779867172e-03</internalNodes>
          <leafValues>
            6.9359314441680908e-01 -2.6056632399559021e-01</leafValues></_>
        <_>
          <internalNodes>
            0 -1 72 -5.8849364519119263e-02</internalNodes>
          <leafValues>
            3.0636742711067200e-01 -5.3253602981567383e-01</leafValues></_>
        <_>
          <internalNodes>
            0 -1 48 -7.4683898128569126e-04</internalNodes>
          <leafValues>
            6.4497852325439453e-01 -2.4481123685836792e-01</leafValues></_></weakClassifiers></_>
    <!-- stage 2 -->
    <_>
      <maxWeakCount>10</maxWeakCount>
      <stageThreshold>-1.7520226240158081e+00</stageThreshold>
      <weakClassifiers>
        <_>
          <internalNodes>
            0 -1 31 1.8891738355159760e-01</internalNodes>
          <leafValues>
            -7.2473120689392090e-01 7.5630255043506622e-02</leafValues></_>
        <_>
          <internalNodes>
            0 -1 27 -7.5110644102096558e-03</internalNodes>
          <leafValues>
            2.2144554555416107e-01 -5.8707779645919800e-01</leafValues></_>
        <_>
          <internalNodes>
            0 -1 94 -1.3080934295430779e-03</internalNodes>
          <leafValues>
            -6.8901932239532471e-01 1.7318117618560791e-01</leafValues></_>
        <_>
          <internalNodes>
            0 -1 146 -3.4356940537691116e-02</internalNodes>
          <leafValues>
            4.5272842049598694e-01 -3.1364727020263672e-01</leafValues></_>
        <_>
          <internalNodes>
            0 -1 98 8.4362894296646118e-02</internalNodes>
          <leafValues>
            -3.1008142232894897e-01 4.7743189334869385e-01</leafValues></_>
        <_>
          <internalNodes>
            0 -1 183 1.6455580771435052e-04</internalNodes>
          <leafValues>
            -4.1042494773864746e-01 3.3653980493545532e-01</leafValues></_>
        <_>
          <internalNodes>
            0 -1 136 -6.7633314756676555e-05</internalNodes>
          <leafValues>
            -5.1998829841613770e-01 2.4219301342964172e-01</leafValues></_>
        <_>
          <internalNodes>
            0 -1 96 -3.0866903252899647e-03</internalNodes>
          <leafValues>
            3.7635493278503418e-01 -3.5378077626228333e-01</leafValues></_>
        <_>
          <internalNodes>
            0 -1 204 -1.4075782382860780e-04</internalNodes>
          <leafValues>
            3.0502495169639587e-01 -4.3618941307067871e-01</leafValues></_>
        <_>
          <internalNodes>
            0 -1 155 1.0405879467725754e-02</internalNodes>
          <leafValues>
            1.8102264404296875e-01 -7.2728943824768066e-01</leafValues></_></weakClassifiers></_>
    <!-- stage 3 -->
    <_>
      <maxWeakCount>9</maxWeakCount>
      <stageThreshold>-1.1221789121627808e+00</stageThreshold>
      <weakClassifiers>
        <_>
          <internalNodes>
            0 -1 201 -5.9417556039988995e-03</internalNodes>
          <leafValues>
            2.6717558503150940e-01 -6.1888110637664795e-01</leafValues></_>
        <_>
          <internalNodes>
            0 -1 57 1.3822481036186218e-02</internalNodes>
          <leafValues>
            -4.9126738309860229e-01 3.5978642106056213e-01</leafValues></_>
        <_>
          <internalNodes>
            0 -1 73 -9.2365797609090805e-03</internalNodes>
          <leafValues>
            5.2478295564651489e-01 -2.6971960067749023e-01</leafValues></_>
        <_>
          <internalNodes>
            0 -1 168 -1.4944355934858322e-02</internalNodes>
          <leafValues>
            3.4560656547546387e-01 -3.9127001166343689e-01</leafValues></_>
        <_>
          <internalNodes>
            0 -1 61 9.5696072094142437e-04</internalNodes>
          <leafValues>
            -1.6202618181705475e-01 7.9584217071533203e-01</leafValues></_>
        <_>
          <internalNodes>
            0 -1 133 9.4670787802897394e-05</internalNodes>
          <leafValues>
            3.1519785523414612e-01 -4.7294288873672485e-01</leafValues></_>
        <_>
          <internalNodes>
            0 -1 159 -1.7756195738911629e-03</internalNodes>
          <leafValues>
            5.5924618244171143e-01 -2.6835161447525024e-01</leafValues></_>
        <_>
          <internalNodes>
            0 -1 37 -7.4193923501297832e-04</internalNodes>
          <leafValues>
            6.6095441579818726e-01 -1.9269894063472748e-01</leafValues></_>
        <_>
          <internalNodes>
            0 -1 127 8.3831837400794029e-04</internalNodes>
          <leafValues>
            2.2449633479118347e-01 -6.9660484790802002e-01</leafValues></_></weakClassifiers></_>
    <!-- stage 4 -->
    <_>
      <maxWeakCount>10</maxWeakCount>
      <stageThreshold>-1.3557214736938477e+00</stageThreshold>
      <weakClassifiers>
        <_>
          <internalNodes>
            0 -1 186 6.2552830204367638e-03</internalNodes>
          <leafValues>
            -6.3702356815338135e-01 2.1052631735801697e-01</leafValues></_>
        <_>
          <internalNodes>
            0 -1 58 6.4459845423698425e-02</internalNodes>
          <leafValues>
            -4.0645217895507813e-01 3.8519036769866943e-01</leafValues></_>
        <_>
          <internalNodes>
            0 -1 25 -7.9448462929576635e-04</internalNodes>
          <leafValues>
            2.9473620653152466e-01 -5.5110067129135132e-01</leafValues></_>
        <_>
          <internalNodes>
            0 -1 51 -8.3391889929771423e-02</internalNodes>
          <leafValues>
            -9.7195810079574585e-01 1.4118823409080505e-01</leafValues></_>
        <_>
          <internalNodes>
            0 -1 88 1.0949799790978432e-02</internalNodes>
          <leafValues>
            -1.9125992059707642e-01 7.2263163328170776e-01</leafValues></_>
        <_>
          <internalNodes>
            0 -1 5 9.7016297280788422e-02</internalNodes>
          <leafValues>
            1.3827548921108246e-01 -9.0256851911544800e-01</leafValues></_>
        <_>
          <internalNodes>
            0 -1 171 -9.3172974884510040e-03</internalNodes>
          <leafValues>
            4.1914039850234985e-01 -2.8342896699905396e-01</leafValues></_>
        <_>
          <internalNodes>
            0 -1 13 -6.1055633705109358e-04</internalNodes>
          <leafValues>
            4.7699302434921265e-01 -2.5575193762779236e-01</leafValues></_>
        <_>
          <internalNodes>
            0 -1 182 -5.7086831657215953e-04</internalNodes>
          <leafValues>
            -7.8378641605377197e-01 1.5657678246498108e-01</leafValues></_>
        <_>
          <internalNodes>
            0 -1 41 -4.7018444165587425e-03</internalNodes>
          <leafValues>
            5.3325533866882324e-01 -2.5642430782318115e-01</leafValues></_></weakClassifiers></_>
    <!-- stage 5 -->
    <_>
      <maxWeakCount>12</maxWeakCount>
      <stageThreshold>-1.3188365697860718e+00</stageThreshold>
      <weakClassifiers>
        <_>
          <internalNodes>
            0 -1 191 6.3991293311119080e-02</internalNodes>
          <leafValues>
            -5.8881580829620361e-01 4.1052630543708801e-01</leafValues></_>
        <_>
          <internalNodes>
            0 -1 12 -3.2437477260828018e-02</internalNodes>
          <leafValues>
            1.7254932224750519e-01 -5.7870227098464966e-01</leafValues></_>
        <_>
          <internalNodes>
            0 -1 166 -1.7947803717106581e-03</internalNodes>
          <leafValues>
            3.2055571675300598e-01 -4.0382108092308044e-01</leafValues></_>
        <_>
          <internalNodes>
            0 -1 54 -3.8826069794595242e-04</internalNodes>
          <leafValues>
            2.8097826242446899e-01 -4.1303753852844238e-01</leafValues></_>
        <_>
          <internalNodes>
            0 -1 83 -1.4831036423856858e-05</internalNodes>
          <leafValues>
            2.8342172503471375e-01 -4.2446559667587280e-01</leafValues></_>
        <_>
          <internalNodes>
            0 -1 197 -8.7429047562181950e-04</internalNodes>
          <leafValues>
            6.2254327535629272e-01 -1.6748225688934326e-01</leafValues></_>
        <_>
          <internalNodes>
            0 -1 74 5.0292395055294037e-02</internalNodes>
          <leafValues>
            1.3732190430164337e-01 -9.4376122951507568e-01</leafValues></_>
        <_>
          <internalNodes>
            0 -1 117 1.6256369650363922e-02</internalNodes>
          <leafValues>
            -3.2113033533096313e-01 4.0226805210113525e-01</leafValues></_>
        <_>
          <internalNodes>
            0 -1 66 1.3511982615455054e-05</internalNodes>
          <leafValues>
            -3.7996196746826172e-01 3.1333813071250916e-01</leafValues></_>
        <_>
          <internalNodes>
            0 -1 44 3.4782364964485168e-03</internalNodes>
          <leafValues>
            -4.1392511129379272e-01 2.6604047417640686e-01</leafValues></_>
        <_>
          <internalNodes>
            0 -1 39 2.5122391525655985e-04</internalNodes>
          <leafValues>
            -2.9014393687248230e-01 4.1562992334365845e-01</leafValues></_>
        <_>
          <internalNodes>
            0 -1 16 -1.7613535746932030e-03</internalNodes>
          <leafValues>
            5.0212258100509644e-01 -3.0818721652030945e-01</leafValues></_></weakClassifiers></_>
    <!-- stage 6 -->
    <_>
      <maxWeakCount>12</maxWeakCount>
      <stageThreshold>-1.4051271677017212e+00</stageThreshold>
      <weakClassifiers>
        <_>
          <internalNodes>
            0 -1 217 -4.1251503862440586e-03</internalNodes>
          <leafValues>
            2.1311475336551666e-01 -5.9380376338958740e-01</leafValues></_>
        <_>
          <internalNodes>
            0 -1 119 -1.0222224146127701e-01</internalNodes>
          <leafValues>
            3.8904458284378052e-01 -3.1482329964637756e-01</leafValues></_>
        <_>
          <internalNodes>
            0 -1 172 1.8187009845860302e-04</internalNodes>
          <leafValues>
            -3.8451009988784790e-01 2.8883054852485657e-01</leafValues></_>
        <_>
          <internalNodes>
            0 -1 7 6.5238967537879944e-02</internalNodes>
          <leafValues>
            -2.5908288359642029e-01 4.2196643352508545e-01</leafValues></_>
        <_>
          <internalNodes>
            0 -1 223 2.6218229904770851e-03</internalNodes>
          <leafValues>
            1.0843409597873688e-01 -9.7704648971557617e-01</leafValues></_>
        <_>
          <internalNodes>
            0 -1 150 -1.9978784257546067e-04</internalNodes>
          <leafValues>
            -5.9233349561691284e-01 1.5009516477584839e-01</leafValues></_>
        <_>
          <internalNodes>
            0 -1 209 1.2734928532154299e-05</internalNodes>
          <leafValues>
            -4.2132380604743958e-01 2.0867490768432617e-01</leafValues></_>
        <_>
          <internalNodes>
            0 -1 100 -1.3350995723158121e-03</internalNodes>
          <leafValues>
            4.1565999388694763e-01 -2.2661024332046509e-01</leafValues></_>
        <_>
          <internalNodes>
            0 -1 103 -1.0514005552977324e-03</internalNodes>
          <leafValues>
            -7.8772801160812378e-01 1.3435029983520508e-01</leafValues></_>
        <_>
          <internalNodes>
            0 -1 93 -8.4457680350169539e-04</internalNodes>
          <leafValues>
            -6.4218133687973022e-01 1.3988737761974335e-01</leafValues></_>
        <_>
          <internalNodes>
            0 -1 92 -3.7537239491939545e-02</internalNodes>
          <leafValues>
            5.8797711133956909e-01 -1.7746879160404205e-01</leafValues></_>
        <_>
          <internalNodes>
            0 -1 97 -3.4943087957799435e-03</internalNodes>
          <leafValues>
            4.8075807094573975e-01 -1.9026987254619598e-01</leafValues></_></weakClassifiers></_>
    <!-- stage 7 -->
    <_>
      <maxWeakCount>11</maxWeakCount>
      <stageThreshold>-1.1697337627410889e+00</stageThreshold>
      <weakClassifiers>
        <_>
          <internalNodes>
            0 -1 202 1.0970878647640347e-03</internalNodes>
          <leafValues>
            -5.7525086402893066e-01 2.3809523880481720e-01</leafValues></_>
        <_>
          <internalNodes>
            0 -1 123 -2.1736058988608420e-04</internalNodes>
          <leafValues>
            -7.0336121320724487e-01 9.8448470234870911e-02</leafValues></_>
        <_>
          <internalNodes>
            0 -1 59 3.7638433277606964e-02</internalNodes>
          <leafValues>
            1.0809414088726044e-01 -7.6253277063369751e-01</leafValues></_>
        <_>
          <internalNodes>
            0 -1 128 -2.9220436699688435e-03</internalNodes>
          <leafValues>
            -6.7544627189636230e-01 1.7161215841770172e-01</leafValues></_>
        <_>
          <internalNodes>
            0 -1 208 4.8876367509365082e-04</internalNodes>
          <leafValues>
            -3.3866280317306519e-01 3.5883739590644836e-01</leafValues></_>
        <_>
          <internalNodes>
            0 -1 160 -6.3279911875724792e-02</internalNodes>
          <leafValues>
            3.8013863563537598e-01 -3.0020278692245483e-01</leafValues></_>
        <_>
          <internalNodes>
            0 -1 221 7.5667939381673932e-04</internalNodes>
          <leafValues>
            -2.1943289041519165e-01 4.6624729037284851e-01</leafValues></_>
        <_>
          <internalNodes>
            0 -1 230 -1.2069887015968561e-03</internalNodes>
          <leafValues>
            -6.2012970447540283e-01 1.8395619094371796e-01</leafValues></_>
        <_>
          <internalNodes>
            0 -1 46 9.4296003226190805e-04</internalNodes>
          <leafValues>
            -1.9229198992252350e-01 6.6136896610260010e-01</leafValues></_>
        <_>
          <internalNodes>
            0 -1 106 1.7667724750936031e-04</internalNodes>
          <leafValues>
            -3.5466358065605164e-01 2.9840850830078125e-01</leafValues></_>
        <_>
          <internalNodes>
            0 -1 14 4.0336092934012413e-03</internalNodes>
          <leafValues>
            -1.6453799605369568e-01 6.4770007133483887e-01</leafValues></_></weakClassifiers></_>
    <!-- stage 8 -->
    <_>
      <maxWeakCount>12</maxWeakCount>
      <stageThreshold>-1.1584099531173706e+00</stageThreshold>
      <weakClassifiers>
        <_>
          <internalNodes>
            0 -1 175 9.9406996741890907e-04</internalNodes>
          <leafValues>
            -7.2941178083419800e-01 -1.9559228420257568e-01</leafValues></_>
        <_>
          <internalNodes>
            0 -1 21 -4.4339159503579140e-03</internalNodes>
          <leafValues>
            1.8387755751609802e-01 -4.4578528404235840e-01</leafValues></_>
        <_>
          <internalNodes>
            0 -1 139 1.4289136743173003e-04</internalNodes>
          <leafValues>
            1.9114018976688385e-01 -4.7108262777328491e-01</leafValues></_>
        <_>
          <internalNodes>
            0 -1 86 5.0371393561363220e-02</internalNodes>
          <leafValues>
            -1.4016711711883545e-01 6.2815684080123901e-01</leafValues></_>
        <_>
          <internalNodes>
            0 -1 169 -1.2295529246330261e-02</internalNodes>
          <leafValues>
            2.9514753818511963e-01 -3.5783624649047852e-01</leafValues></_>
        <_>
          <internalNodes>
            0 -1 116 -2.1588872186839581e-03</internalNodes>
          <leafValues>
            5.3165429830551147e-01 -1.7407995462417603e-01</leafValues></_>
        <_>
          <internalNodes>
            0 -1 1 -2.5349944829940796e-02</internalNodes>
          <leafValues>
            -7.8906571865081787e-01 1.4659258723258972e-01</leafValues></_>
        <_>
          <internalNodes>
            0 -1 212 1.9320462597534060e-03</internalNodes>
          <leafValues>
            -1.8439374864101410e-01 5.5770188570022583e-01</leafValues></_>
        <_>
          <internalNodes>
            0 -1 11 -1.5113462693989277e-02</internalNodes>
          <leafValues>
            -5.8852136135101318e-01 1.8149331212043762e-01</leafValues></_>
        <_>
          <internalNodes>
            0 -1 2 5.7613462209701538e-02</internalNodes>
          <leafValues>
            1.1827222257852554e-01 -7.4932909011840820e-01</leafValues></_>
        <_>
          <internalNodes>
            0 -1 99 -9.1482847929000854e-03</internalNodes>
          <leafValues>
            7.1448224782943726e-01 -1.5032993257045746e-01</leafValues></_>
        <_>
          <internalNodes>
            0 -1 157 -9.6760329324752092e-04</internalNodes>
          <leafValues>
            4.5037624239921570e-01 -1.9341945648193359e-01</leafValues></_></weakClassifiers></_>
    <!-- stage 9 -->
    <_>
      <maxWeakCount>13</maxWeakCount>
      <stageThreshold>-1.3730616569519043e+00</stageThreshold>
      <weakClassifiers>
        <_>
          <internalNodes>
            0 -1 219 -3.1734462827444077e-03</internalNodes>
          <leafValues>
            1.8811881542205811e-01 -5.6146180629730225e-01</leafValues></_>
        <_>
          <internalNodes>
            0 -1 196 3.1291542109102011e-04</internalNodes>
          <leafValues>
            -3.0451887845993042e-01 3.5248106718063354e-01</leafValues></_>
        <_>
          <internalNodes>
            0 -1 28 -1.3104157005727757e-05</internalNodes>
          <leafValues>
            2.5578287243843079e-01 -4.2081505060195923e-01</leafValues></_>
        <_>
          <internalNodes>
            0 -1 84 6.7790294997394085e-04</internalNodes>
          <leafValues>
            1.6022631525993347e-01 -5.4233211278915405e-01</leafValues></_>
        <_>
          <internalNodes>
            0 -1 122 1.8500778242014349e-04</internalNodes>
          <leafValues>
            1.8966013193130493e-01 -6.0517835617065430e-01</leafValues></_>
        <_>
          <internalNodes>
            0 -1 144 2.4793606251478195e-02</internalNodes>
          <leafValues>
            1.0339509695768356e-01 -8.9268374443054199e-01</leafValues></_>
        <_>
          <internalNodes>
            0 -1 190 3.4881164319813251e-03</internalNodes>
          <leafValues>
            -3.3440464735031128e-01 3.1054285168647766e-01</leafValues></_>
        <_>
          <internalNodes>
            0 -1 145 2.8266350273042917e-04</internalNodes>
          <leafValues>
            1.4287459850311279e-01 -6.6178780794143677e-01</leafValues></_>
        <_>
          <internalNodes>
            0 -1 114 7.1182162500917912e-03</internalNodes>
          <leafValues>
            1.1322369426488876e-01 -7.7622771263122559e-01</leafValues></_>
        <_>
          <internalNodes>
            0 -1 43 2.0337330643087626e-03</internalNodes>
          <leafValues>
            -2.4131749570369720e-01 4.1408103704452515e-01</leafValues></_>
        <_>
          <internalNodes>
            0 -1 23 -6.4375100191682577e-04</internalNodes>
          <leafValues>
            2.4512557685375214e-01 -4.1014283895492554e-01</leafValues></_>
        <_>
          <internalNodes>
            0 -1 8 3.2334444113075733e-03</internalNodes>
          <leafValues>
            -1.7723529040813446e-01 5.7985985279083252e-01</leafValues></_>
        <_>
          <internalNodes>
            0 -1 170 3.5556633956730366e-03</internalNodes>
          <leafValues>
            -1.2414498627185822e-01 7.1615391969680786e-01</leafValues></_></weakClassifiers></_>
    <!-- stage 10 -->
    <_>
      <maxWeakCount>13</maxWeakCount>
      <stageThreshold>-1.1685029268264771e+00</stageThreshold>
      <weakClassifiers>
        <_>
          <internalNodes>
            0 -1 177 5.7606287300586700e-03</internalNodes>
          <leafValues>
            -6.4853554964065552e-01 -3.9999999105930328e-02</leafValues></_>
        <_>
          <internalNodes>
            0 -1 184 1.2456413358449936e-01</internalNodes>
          <leafValues>
            -2.1438649296760559e-01 5.1005983352661133e-01</leafValues></_>
        <_>
          <internalNodes>
            0 -1 105 2.8201780514791608e-04</internalNodes>
          <leafValues>
            1.8944890797138214e-01 -4.5936653017997742e-01</leafValues></_>
        <_>
          <internalNodes>
            0 -1 130 -1.6192004550248384e-03</internalNodes>
          <leafValues>
            4.0842989087104797e-01 -1.7749133706092834e-01</leafValues></_>
        <_>
          <internalNodes>
            0 -1 95 7.7480554580688477e-02</internalNodes>
          <leafValues>
            -1.0662952810525894e-01 6.1531186103820801e-01</leafValues></_>
        <_>
          <internalNodes>
            0 -1 167 -2.6725133648142219e-04</internalNodes>
          <leafValues>
            -3.3874121308326721e-01 2.6571595668792725e-01</leafValues></_>
        <_>
          <internalNodes>
            0 -1 185 8.8708503171801567e-03</internalNodes>
          <leafValues>
            -2.5459301471710205e-01 3.5256782174110413e-01</leafValues></_>
        <_>
          <internalNodes>
            0 -1 135 -1.3536795042455196e-02</internalNodes>
          <leafValues>
            2.4565196037292480e-01 -3.7863385677337646e-01</leafValues></_>
        <_>
          <internalNodes>
            0 -1 89 1.0431285947561264e-02</internalNodes>
          <leafValues>
            -1.7306491732597351e-01 5.2483159303665161e-01</leafValues></_>
        <_>
          <internalNodes>
            0 -1 81 -1.7913207411766052e-03</internalNodes>
          <leafValues>
            4.7086855769157410e-01 -1.6550678014755249e-01</leafValues></_>
        <_>
          <internalNodes>
            0 -1 227 -7.6211639679968357e-04</internalNodes>
          <leafValues>
            -1. 8.3820037543773651e-02</leafValues></_>
        <_>
          <internalNodes>
            0 -1 189 -7.2359258774667978e-04</internalNodes>
          <leafValues>
            3.1650578975677490e-01 -2.6932728290557861e-01</leafValues></_>
        <_>
          <internalNodes>
            0 -1 125 -9.3850819393992424e-04</internalNodes>
          <leafValues>
            -7.5303870439529419e-01 1.1521096527576447e-01</leafValues></_></weakClassifiers></_>
    <!-- stage 11 -->
    <_>
      <maxWeakCount>14</maxWeakCount>
      <stageThreshold>-1.2383526563644409e+00</stageThreshold>
      <weakClassifiers>
        <_>
          <internalNodes>
            0 -1 62 7.4145071208477020e-02</internalNodes>
          <leafValues>
            -5.3605014085769653e-01 3.5384616255760193e-01</leafValues></_>
        <_>
          <internalNodes>
            0 -1 113 2.0279479213058949e-03</internalNodes>
          <leafValues>
            -3.6639049649238586e-01 2.2289665043354034e-01</leafValues></_>
        <_>
          <internalNodes>
            0 -1 121 1.2239327188581228e-03</internalNodes>
          <leafValues>
            1.5200769901275635e-01 -5.2522051334381104e-01</leafValues></_>
        <_>
          <internalNodes>
            0 -1 151 6.3600670546293259e-04</internalNodes>
          <leafValues>
            2.4309179186820984e-01 -4.1159334778785706e-01</leafValues></_>
        <_>
          <internalNodes>
            0 -1 216 -2.7800807729363441e-03</internalNodes>
          <leafValues>
            5.2961802482604980e-01 -2.1790407598018646e-01</leafValues></_>
        <_>
          <internalNodes>
            0 -1 20 -3.2104454003274441e-03</internalNodes>
          <leafValues>
            2.9676222801208496e-01 -3.5204932093620300e-01</leafValues></_>
        <_>
          <internalNodes>
            0 -1 17 -1.3096668757498264e-02</internalNodes>
          <leafValues>
            -8.2001805305480957e-01 1.0524868220090866e-01</leafValues></_>
        <_>
          <internalNodes>
            0 -1 36 -2.7052336372435093e-03</internalNodes>
          <leafValues>
            5.0899595022201538e-01 -1.7697052657604218e-01</leafValues></_>
        <_>
          <internalNodes>
            0 -1 188 1.7272769473493099e-03</internalNodes>
          <leafValues>
            7.7203840017318726e-02 -9.1523027420043945e-01</leafValues></_>
        <_>
          <internalNodes>
            0 -1 78 1.6296010289806873e-04</internalNodes>
          <leafValues>
            1.5384295582771301e-01 -4.7417899966239929e-01</leafValues></_>
        <_>
          <internalNodes>
            0 -1 178 1.4908491866663098e-03</internalNodes>
          <leafValues>
            -1.8456980586051941e-01 4.4030615687370300e-01</leafValues></_>
        <_>
          <internalNodes>
            0 -1 76 7.6783830299973488e-03</internalNodes>
          <leafValues>
            -9.2713654041290283e-02 7.4081611633300781e-01</leafValues></_>
        <_>
          <internalNodes>
            0 -1 149 -1.7219182103872299e-02</internalNodes>
          <leafValues>
            7.2499752044677734e-01 -8.6940862238407135e-02</leafValues></_>
        <_>
          <internalNodes>
            0 -1 194 2.7907348703593016e-04</internalNodes>
          <leafValues>
            -2.6899072527885437e-01 2.9042780399322510e-01</leafValues></_></weakClassifiers></_>
    <!-- stage 12 -->
    <_>
      <maxWeakCount>18</maxWeakCount>
      <stageThreshold>-1.2308781147003174e+00</stageThreshold>
      <weakClassifiers>
        <_>
          <internalNodes>
            0 -1 10 -2.4278550408780575e-03</internalNodes>
          <leafValues>
            1.3157894834876060e-02 -5.8257710933685303e-01</leafValues></_>
        <_>
          <internalNodes>
            0 -1 205 1.8969336524605751e-03</internalNodes>
          <leafValues>
            -2.6603588461875916e-01 3.8240429759025574e-01</leafValues></_>
        <_>
          <internalNodes>
            0 -1 158 -3.3052740036509931e-05</internalNodes>
          <leafValues>
            2.3873896896839142e-01 -3.7656825780868530e-01</leafValues></_>
        <_>
          <internalNodes>
            0 -1 228 -1.1624601669609547e-02</internalNodes>
          <leafValues>
            -7.9566305875778198e-01 1.0495012998580933e-01</leafValues></_>
        <_>
          <internalNodes>
            0 -1 95 -6.2213737517595291e-02</internalNodes>
          <leafValues>
            5.9157091379165649e-01 -1.2827475368976593e-01</leafValues></_>
        <_>
          <internalNodes>
            0 -1 172 1.7826375551521778e-04</internalNodes>
          <leafValues>
            -3.3382058143615723e-01 2.5335636734962463e-01</leafValues></_>
        <_>
          <internalNodes>
            0 -1 67 1.8847361207008362e-03</internalNodes>
          <leafValues>
            1.5100765228271484e-01 -5.2688592672348022e-01</leafValues></_>
        <_>
          <internalNodes>
            0 -1 53 -7.5367176905274391e-03</internalNodes>
          <leafValues>
            5.3391611576080322e-01 -1.5013222396373749e-01</leafValues></_>
        <_>
          <internalNodes>
            0 -1 131 -1.2201235222164541e-05</internalNodes>
          <leafValues>
            2.3453101515769958e-01 -4.0279310941696167e-01</leafValues></_>
        <_>
          <internalNodes>
            0 -1 29 -1.3391007087193429e-04</internalNodes>
          <leafValues>
            2.2606672346591949e-01 -3.6966708302497864e-01</leafValues></_>
        <_>
          <internalNodes>
            0 -1 68 4.2473986744880676e-02</internalNodes>
          <leafValues>
            -1.9224785268306732e-01 4.5261403918266296e-01</leafValues></_>
        <_>
          <internalNodes>
            0 -1 14 5.0208806060254574e-03</internalNodes>
          <leafValues>
            -1.4422412216663361e-01 6.2408429384231567e-01</leafValues></_>
        <_>
          <internalNodes>
            0 -1 137 -1.9849510863423347e-03</internalNodes>
          <leafValues>
            -5.9294259548187256e-01 1.5264521539211273e-01</leafValues></_>
        <_>
          <internalNodes>
            0 -1 115 1.4994981465861201e-03</internalNodes>
          <leafValues>
            2.0996446907520294e-01 -4.5043528079986572e-01</leafValues></_>
        <_>
          <internalNodes>
            0 -1 111 -6.0245231725275517e-03</internalNodes>
          <leafValues>
            3.3994215726852417e-01 -2.4742503464221954e-01</leafValues></_>
        <_>
          <internalNodes>
            0 -1 33 6.7819669842720032e-02</internalNodes>
          <leafValues>
            -3.7685483694076538e-01 2.5244998931884766e-01</leafValues></_>
        <_>
          <internalNodes>
            0 -1 9 1.0494545102119446e-02</internalNodes>
          <leafValues>
            -1.9482927024364471e-01 4.9387639760971069e-01</leafValues></_>
        <_>
          <internalNodes>
            0 -1 211 5.6635739747434855e-04</internalNodes>
          <leafValues>
            -1.2415271997451782e-01 6.0742360353469849e-01</leafValues></_></weakClassifiers></_>
    <!-- stage 13 -->
    <_>
      <maxWeakCount>12</maxWeakCount>
      <stageThreshold>-1.0763152837753296e+00</stageThreshold>
      <weakClassifiers>
        <_>
          <internalNodes>
            0 -1 148 -1.1500075459480286e-02</internalNodes>
          <leafValues>
            9.0909093618392944e-01 -4.9779736995697021e-01</leafValues></_>
        <_>
          <internalNodes>
            0 -1 47 3.9198106527328491e-01</internalNodes>
          <leafValues>
            -2.0775671303272247e-01 5.0867766141891479e-01</leafValues></_>
        <_>
          <internalNodes>
            0 -1 218 -1.7856468912214041e-03</internalNodes>
          <leafValues>
            -7.6380378007888794e-01 1.2264833599328995e-01</leafValues></_>
        <_>
          <internalNodes>
            0 -1 138 1.9125320017337799e-02</internalNodes>
          <leafValues>
            2.3622256517410278e-01 -3.7829533219337463e-01</leafValues></_>
        <_>
          <internalNodes>
            0 -1 77 -3.9104532334022224e-05</internalNodes>
          <leafValues>
            2.2836567461490631e-01 -4.0775439143180847e-01</leafValues></_>
        <_>
          <internalNodes>
            0 -1 173 -2.3619838058948517e-02</internalNodes>
          <leafValues>
            4.3149521946907043e-01 -2.1435832977294922e-01</leafValues></_>
        <_>
          <internalNodes>
            0 -1 140 -7.8212551306933165e-04</internalNodes>
          <leafValues>
            -5.0196075439453125e-01 1.9669409096240997e-01</leafValues></_>
        <_>
          <internalNodes>
            0 -1 18 -8.5032247006893158e-03</internalNodes>
          <leafValues>
            -5.6727397441864014e-01 1.2459508329629898e-01</leafValues></_>
        <_>
          <internalNodes>
            0 -1 112 4.9977668095380068e-04</internalNodes>
          <leafValues>
            -1.4749778807163239e-01 5.7634288072586060e-01</leafValues></_>
        <_>
          <internalNodes>
            0 -1 156 2.0332602434791625e-04</internalNodes>
          <leafValues>
            2.1017870306968689e-01 -3.9639681577682495e-01</leafValues></_>
        <_>
          <internalNodes>
            0 -1 60 3.8721999153494835e-03</internalNodes>
          <leafValues>
            -1.6954113543033600e-01 4.6802866458892822e-01</leafValues></_>
        <_>
          <internalNodes>
            0 -1 206 -1.4857335481792688e-03</internalNodes>
          <leafValues>
            5.6450378894805908e-01 -1.3774126768112183e-01</leafValues></_></weakClassifiers></_>
    <!-- stage 14 -->
    <_>
      <maxWeakCount>16</maxWeakCount>
      <stageThreshold>-1.2447034120559692e+00</stageThreshold>
      <weakClassifiers>
        <_>
          <internalNodes>
            0 -1 195 -3.1949315220117569e-02</internalNodes>
          <leafValues>
            3.8983049988746643e-01 -5.3105592727661133e-01</leafValues></_>
        <_>
          <internalNodes>
            0 -1 85 -4.4701501610688865e-04</internalNodes>
          <leafValues>
            1.0670962184667587e-01 -4.9389648437500000e-01</leafValues></_>
        <_>
          <internalNodes>
            0 -1 152 -1.1656361166387796e-03</internalNodes>
          <leafValues>
            -5.7495665550231934e-01 1.1773180216550827e-01</leafValues></_>
        <_>
          <internalNodes>
            0 -1 213 -2.5788978673517704e-03</internalNodes>
          <leafValues>
            4.2439910769462585e-01 -1.6399765014648438e-01</leafValues></_>
        <_>
          <internalNodes>
            0 -1 220 -5.2999390754848719e-04</internalNodes>
          <leafValues>
            3.6693587899208069e-01 -1.9583365321159363e-01</leafValues></_>
        <_>
          <internalNodes>
            0 -1 207 3.7195850163698196e-03</internalNodes>
          <leafValues>
            -1.8831187486648560e-01 4.1616082191467285e-01</leafValues></_>
        <_>
          <internalNodes>
            0 -1 198 -6.7279266659170389e-04</internalNodes>
          <leafValues>
            -4.7974422574043274e-01 1.6607913374900818e-01</leafValues></_>
        <_>
          <internalNodes>
            0 -1 129 -2.5750556960701942e-03</internalNodes>
          <leafValues>
            -4.2694526910781860e-01 1.9471333920955658e-01</leafValues></_>
        <_>
          <internalNodes>
            0 -1 61 9.6072850283235312e-04</internalNodes>
          <leafValues>
            -1.4857889711856842e-01 6.0547232627868652e-01</leafValues></_>
        <_>
          <internalNodes>
            0 -1 65 -4.3093203566968441e-03</internalNodes>
          <leafValues>
            2.8446489572525024e-01 -2.8782913088798523e-01</leafValues></_>
        <_>
          <internalNodes>
            0 -1 0 -1.1894094757735729e-02</internalNodes>
          <leafValues>
            -7.3941290378570557e-01 1.1186832189559937e-01</leafValues></_>
        <_>
          <internalNodes>
            0 -1 6 -4.7913859598338604e-03</internalNodes>
          <leafValues>
            -6.7561697959899902e-01 1.0910832881927490e-01</leafValues></_>
        <_>
          <internalNodes>
            0 -1 141 -1.3604684500023723e-04</internalNodes>
          <leafValues>
            -4.9515134096145630e-01 1.5541246533393860e-01</leafValues></_>
        <_>
          <internalNodes>
            0 -1 132 1.8773862393572927e-04</internalNodes>
          <leafValues>
            1.6668972373008728e-01 -5.1089644432067871e-01</leafValues></_>
        <_>
          <internalNodes>
            0 -1 70 6.2010772526264191e-03</internalNodes>
          <leafValues>
            -1.5841843187808990e-01 6.2990397214889526e-01</leafValues></_>
        <_>
          <internalNodes>
            0 -1 163 -7.1879341267049313e-03</internalNodes>
          <leafValues>
            2.3979695141315460e-01 -4.2000338435173035e-01</leafValues></_></weakClassifiers></_>
    <!-- stage 15 -->
    <_>
      <maxWeakCount>17</maxWeakCount>
      <stageThreshold>-1.2062956094741821e+00</stageThreshold>
      <weakClassifiers>
        <_>
          <internalNodes>
            0 -1 45 7.6114624738693237e-02</internalNodes>
          <leafValues>
            -5.5892252922058105e-01 1.1926605552434921e-01</leafValues></_>
        <_>
          <internalNodes>
            0 -1 179 -7.7779858838766813e-04</internalNodes>
          <leafValues>
            -4.7911971807479858e-01 1.5300226211547852e-01</leafValues></_>
        <_>
          <internalNodes>
            0 -1 214 -2.9589550103992224e-04</internalNodes>
          <leafValues>
            2.9327735304832458e-01 -2.8127074241638184e-01</leafValues></_>
        <_>
          <internalNodes>
            0 -1 176 -1.4815779402852058e-02</internalNodes>
          <leafValues>
            2.8695052862167358e-01 -2.6533520221710205e-01</leafValues></_>
        <_>
          <internalNodes>
            0 -1 210 -2.6985825970768929e-03</internalNodes>
          <leafValues>
            4.5677211880683899e-01 -1.5971857309341431e-01</leafValues></_>
        <_>
          <internalNodes>
            0 -1 225 -2.9595054220408201e-03</internalNodes>
          <leafValues>
            5.8674311637878418e-01 -1.2986850738525391e-01</leafValues></_>
        <_>
          <internalNodes>
            0 -1 71 6.8382127210497856e-03</internalNodes>
          <leafValues>
            -1.9349768757820129e-01 5.2814072370529175e-01</leafValues></_>
        <_>
          <internalNodes>
            0 -1 82 -2.4608571548014879e-03</internalNodes>
          <leafValues>
            -6.8279868364334106e-01 1.3774313032627106e-01</leafValues></_>
        <_>
          <internalNodes>
            0 -1 42 -6.7888470366597176e-03</internalNodes>
          <leafValues>
            2.1173822879791260e-01 -4.1549205780029297e-01</leafValues></_>
        <_>
          <internalNodes>
            0 -1 49 -5.7358607649803162e-02</internalNodes>
          <leafValues>
            6.1737233400344849e-01 -1.4563709497451782e-01</leafValues></_>
        <_>
          <internalNodes>
            0 -1 35 2.4926662445068359e-03</internalNodes>
          <leafValues>
            -1.6851803660392761e-01 5.7298350334167480e-01</leafValues></_>
        <_>
          <internalNodes>
            0 -1 26 -8.2004879368469119e-04</internalNodes>
          <leafValues>
            2.4923311173915863e-01 -4.3710482120513916e-01</leafValues></_>
        <_>
          <internalNodes>
            0 -1 143 -3.9445410948246717e-04</internalNodes>
          <leafValues>
            3.9160633087158203e-01 -2.3693847656250000e-01</leafValues></_>
        <_>
          <internalNodes>
            0 -1 15 -4.3799899518489838e-02</internalNodes>
          <leafValues>
            -6.1761629581451416e-01 1.7373129725456238e-01</leafValues></_>
        <_>
          <internalNodes>
            0 -1 126 1.5919673023745418e-03</internalNodes>
          <leafValues>
            1.6498677432537079e-01 -5.4427814483642578e-01</leafValues></_>
        <_>
          <internalNodes>
            0 -1 80 -5.8461353182792664e-04</internalNodes>
          <leafValues>
            5.3120577335357666e-01 -1.9413128495216370e-01</leafValues></_>
        <_>
          <internalNodes>
            0 -1 192 7.3552867397665977e-03</internalNodes>
          <leafValues>
            2.4035720527172089e-01 -3.8429516553878784e-01</leafValues></_></weakClassifiers></_>
    <!-- stage 16 -->
    <_>
      <maxWeakCount>15</maxWeakCount>
      <stageThreshold>-1.5412819385528564e+00</stageThreshold>
      <weakClassifiers>
        <_>
          <internalNodes>
            0 -1 108 1.8766729161143303e-02</internalNodes>
          <leafValues>
            -5.0073421001434326e-01 1.</leafValues></_>
        <_>
          <internalNodes>
            0 -1 34 3.7843827158212662e-02</internalNodes>
          <leafValues>
            -4.4450277090072632e-01 1.9513151049613953e-01</leafValues></_>
        <_>
          <internalNodes>
            0 -1 79 2.3142745718359947e-02</internalNodes>
          <leafValues>
            1.1563106626272202e-01 -8.1088042259216309e-01</leafValues></_>
        <_>
          <internalNodes>
            0 -1 180 -1.8798543605953455e-03</internalNodes>
          <leafValues>
            6.4022016525268555e-01 -1.5763987600803375e-01</leafValues></_>
        <_>
          <internalNodes>
            0 -1 104 2.3539480753242970e-04</internalNodes>
          <leafValues>
            2.1804276108741760e-01 -5.1439744234085083e-01</leafValues></_>
        <_>
          <internalNodes>
            0 -1 55 1.4295554719865322e-03</internalNodes>
          <leafValues>
            -3.3779883384704590e-01 2.7502635121345520e-01</leafValues></_>
        <_>
          <internalNodes>
            0 -1 174 1.5132885891944170e-03</internalNodes>
          <leafValues>
            -1.3177627325057983e-01 7.0374858379364014e-01</leafValues></_>
        <_>
          <internalNodes>
            0 -1 101 -3.9302720688283443e-04</internalNodes>
          <leafValues>
            3.7830635905265808e-01 -2.5997006893157959e-01</leafValues></_>
        <_>
          <internalNodes>
            0 -1 69 -4.3595256283879280e-03</internalNodes>
          <leafValues>
            6.9091242551803589e-01 -1.3560903072357178e-01</leafValues></_>
        <_>
          <internalNodes>
            0 -1 215 -3.2491177320480347e-02</internalNodes>
          <leafValues>
            -6.6043150424957275e-01 1.7071104049682617e-01</leafValues></_>
        <_>
          <internalNodes>
            0 -1 193 2.4829458445310593e-02</internalNodes>
          <leafValues>
            -2.7374133467674255e-01 3.6544519662857056e-01</leafValues></_>
        <_>
          <internalNodes>
            0 -1 222 4.1960196540458128e-05</internalNodes>
          <leafValues>
            -2.8124019503593445e-01 3.8760215044021606e-01</leafValues></_>
        <_>
          <internalNodes>
            0 -1 118 -2.8179967775940895e-03</internalNodes>
          <leafValues>
            5.4791492223739624e-01 -1.9559711217880249e-01</leafValues></_>
        <_>
          <internalNodes>
            0 -1 63 -8.3735948428511620e-03</internalNodes>
          <leafValues>
            -8.1935602426528931e-01 1.5275703370571136e-01</leafValues></_>
        <_>
          <internalNodes>
            0 -1 22 1.0931190103292465e-02</internalNodes>
          <leafValues>
            -1.4865654706954956e-01 8.2896906137466431e-01</leafValues></_></weakClassifiers></_>
    <!-- stage 17 -->
    <_>
      <maxWeakCount>12</maxWeakCount>
      <stageThreshold>-1.3829081058502197e+00</stageThreshold>
      <weakClassifiers>
        <_>
          <internalNodes>
            0 -1 187 2.0008527208119631e-03</internalNodes>
          <leafValues>
            -5.0737464427947998e-01 1.</leafValues></_>
        <_>
          <internalNodes>
            0 -1 200 6.9621764123439789e-04</internalNodes>
          <leafValues>
            -2.1303620934486389e-01 5.9686923027038574e-01</leafValues></_>
        <_>
          <internalNodes>
            0 -1 226 -3.7891715764999390e-03</internalNodes>
          <leafValues>
            -7.1206659078598022e-01 1.7943611741065979e-01</leafValues></_>
        <_>
          <internalNodes>
            0 -1 120 2.1966593340039253e-04</internalNodes>
          <leafValues>
            1.7508088052272797e-01 -5.6350350379943848e-01</leafValues></_>
        <_>
          <internalNodes>
            0 -1 30 -1.2849136255681515e-03</internalNodes>
          <leafValues>
            2.4892361462116241e-01 -4.1237393021583557e-01</leafValues></_>
        <_>
          <internalNodes>
            0 -1 161 -3.0857231467962265e-03</internalNodes>
          <leafValues>
            3.9294350147247314e-01 -3.1492075324058533e-01</leafValues></_>
        <_>
          <internalNodes>
            0 -1 229 8.8852556655183434e-04</internalNodes>
          <leafValues>
            1.5940865874290466e-01 -7.4093347787857056e-01</leafValues></_>
        <_>
          <internalNodes>
            0 -1 142 1.7746552824974060e-01</internalNodes>
          <leafValues>
            -1.4832542836666107e-01 1.</leafValues></_>
        <_>
          <internalNodes>
            0 -1 181 5.9859143220819533e-05</internalNodes>
          <leafValues>
            3.6192083358764648e-01 -3.3174198865890503e-01</leafValues></_>
        <_>
          <internalNodes>
            0 -1 110 6.0901584220118821e-05</internalNodes>
          <leafValues>
            -3.0215263366699219e-01 4.6907258033752441e-01</leafValues></_>
        <_>
          <internalNodes>
            0 -1 3 -2.2037504240870476e-03</internalNodes>
          <leafValues>
            5.5311709642410278e-01 -2.5533404946327209e-01</leafValues></_>
        <_>
          <internalNodes>
            0 -1 200 -5.5479578441008925e-04</internalNodes>
          <leafValues>
            7.7807426452636719e-01 -1.8279933929443359e-01</leafValues></_></weakClassifiers></_>
    <!-- stage 18 -->
    <_>
      <maxWeakCount>9</maxWeakCount>
      <stageThreshold>-1.1342561244964600e+00</stageThreshold>
      <weakClassifiers>
        <_>
          <internalNodes>
            0 -1 75 -3.3501167781651020e-03</internalNodes>
          <leafValues>
            1. -5.6508421897888184e-01</leafValues></_>
        <_>
          <internalNodes>
            0 -1 224 -5.8823585277423263e-04</internalNodes>
          <leafValues>
            5.8690953254699707e-01 -3.2614958286285400e-01</leafValues></_>
        <_>
          <internalNodes>
            0 -1 91 3.7303213030099869e-03</internalNodes>
          <leafValues>
            3.6753273010253906e-01 -4.5723006129264832e-01</leafValues></_>
        <_>
          <internalNodes>
            0 -1 40 -1.3511982615455054e-05</internalNodes>
          <leafValues>
            5.1167839765548706e-01 -3.4981864690780640e-01</leafValues></_>
        <_>
          <internalNodes>
            0 -1 147 -2.4828091263771057e-03</internalNodes>
          <leafValues>
            5.9448790550231934e-01 -2.9426154494285583e-01</leafValues></_>
        <_>
          <internalNodes>
            0 -1 19 -5.7869318872690201e-02</internalNodes>
          <leafValues>
            -8.0773985385894775e-01 2.6000902056694031e-01</leafValues></_>
        <_>
          <internalNodes>
            0 -1 52 -1.2721103848889470e-04</internalNodes>
          <leafValues>
            5.8542931079864502e-01 -2.9128736257553101e-01</leafValues></_>
        <_>
          <internalNodes>
            0 -1 165 -2.9067290015518665e-03</internalNodes>
          <leafValues>
            9.5735317468643188e-01 -1.7008137702941895e-01</leafValues></_>
        <_>
          <internalNodes>
            0 -1 124 1.5581976622343063e-03</internalNodes>
          <leafValues>
            3.8957464694976807e-01 -4.1808453202247620e-01</leafValues></_></weakClassifiers></_>
    <!-- stage 19 -->
    <_>
      <maxWeakCount>7</maxWeakCount>
      <stageThreshold>-1.0032773017883301e+00</stageThreshold>
      <weakClassifiers>
        <_>
          <internalNodes>
            0 -1 203 2.3280344903469086e-03</internalNodes>
          <leafValues>
            -6.2480127811431885e-01 1.</leafValues></_>
        <_>
          <internalNodes>
            0 -1 102 2.4694018065929413e-04</internalNodes>
          <leafValues>
            3.2909497618675232e-01 -6.8029361963272095e-01</leafValues></_>
        <_>
          <internalNodes>
            0 -1 64 -3.2769304234534502e-03</internalNodes>
          <leafValues>
            7.7380561828613281e-01 -4.0161940455436707e-01</leafValues></_>
        <_>
          <internalNodes>
            0 -1 50 4.6076010912656784e-02</internalNodes>
          <leafValues>
            -2.3396313190460205e-01 9.3485921621322632e-01</leafValues></_>
        <_>
          <internalNodes>
            0 -1 87 -7.4185957200825214e-03</internalNodes>
          <leafValues>
            8.9562350511550903e-01 -2.4576415121555328e-01</leafValues></_>
        <_>
          <internalNodes>
            0 -1 109 3.0611834517912939e-05</internalNodes>
          <leafValues>
            -2.6017886400222778e-01 8.3174753189086914e-01</leafValues></_>
        <_>
          <internalNodes>
            0 -1 120 -2.5923590874299407e-04</internalNodes>
          <leafValues>
            -7.4147045612335205e-01 4.6758118271827698e-01</leafValues></_></weakClassifiers></_>
    <!-- stage 20 -->
    <_>
      <maxWeakCount>3</maxWeakCount>
      <stageThreshold>-5.2803719043731689e-01</stageThreshold>
      <weakClassifiers>
        <_>
          <internalNodes>
            0 -1 154 4.3585496023297310e-03</internalNodes>
          <leafValues>
            1. -8.3154124021530151e-01</leafValues></_>
        <_>
          <internalNodes>
            0 -1 134 8.1633788067847490e-04</internalNodes>
          <leafValues>
            1. -6.9649600982666016e-01</leafValues></_>
        <_>
          <internalNodes>
            0 -1 32 1.8970581004396081e-04</internalNodes>
          <leafValues>
            1. -5.6884074211120605e-01</leafValues></_></weakClassifiers></_></stages>
  <features>
    <_>
      <rects>
        <_>
          0 0 2 9 -1.</_>
        <_>
          0 3 2 3 3.</_></rects>
      <tilted>0</tilted></_>
    <_>
      <rects>
        <_>
          0 0 2 21 -1.</_>
        <_>
          0 7 2 7 3.</_></rects>
      <tilted>0</tilted></_>
    <_>
      <rects>
        <_>
          0 0 14 18 -1.</_>
        <_>
          0 0 7 9 2.</_>
        <_>
          7 9 7 9 2.</_></rects>
      <tilted>0</tilted></_>
    <_>
      <rects>
        <_>
          0 2 12 2 -1.</_>
        <_>
          0 2 6 1 2.</_>
        <_>
          6 3 6 1 2.</_></rects>
      <tilted>0</tilted></_>
    <_>
      <rects>
        <_>
          0 2 24 4 -1.</_>
        <_>
          8 2 8 4 3.</_></rects>
      <tilted>0</tilted></_>
    <_>
      <rects>
        <_>
          0 2 20 10 -1.</_>
        <_>
          0 7 20 5 2.</_></rects>
      <tilted>0</tilted></_>
    <_>
      <rects>
        <_>
          0 3 1 9 -1.</_>
        <_>
          0 6 1 3 3.</_></rects>
      <tilted>0</tilted></_>
    <_>
      <rects>
        <_>
          0 3 24 2 -1.</_>
        <_>
          8 3 8 2 3.</_></rects>
      <tilted>0</tilted></_>
    <_>
      <rects>
        <_>
          0 4 3 9 -1.</_>
        <_>
          1 4 1 9 3.</_></rects>
      <tilted>0</tilted></_>
    <_>
      <rects>
        <_>
          0 5 6 11 -1.</_>
        <_>
          2 5 2 11 3.</_></rects>
      <tilted>0</tilted></_>
    <_>
      <rects>
        <_>
          0 10 3 5 -1.</_>
        <_>
          1 10 1 5 3.</_></rects>
      <tilted>0</tilted></_>
    <_>
      <rects>
        <_>
          0 11 24 3 -1.</_>
        <_>
          8 11 8 3 3.</_></rects>
      <tilted>0</tilted></_>
    <_>
      <rects>
        <_>
          0 11 10 12 -1.</_>
        <_>
          0 17 10 6 2.</_></rects>
      <tilted>0</tilted></_>
    <_>
      <rects>
        <_>
          0 12 3 2 -1.</_>
        <_>
          1 12 1 2 3.</_></rects>
      <tilted>0</tilted></_>
    <_>
      <rects>
        <_>
          0 12 3 6 -1.</_>
        <_>
          1 12 1 6 3.</_></rects>
      <tilted>0</tilted></_>
    <_>
      <rects>
        <_>
          0 12 16 10 -1.</_>
        <_>
          8 12 8 10 2.</_></rects>
      <tilted>0</tilted></_>
    <_>
      <rects>
        <_>
          0 13 6 1 -1.</_>
        <_>
          2 13 2 1 3.</_></rects>
      <tilted>0</tilted></_>
    <_>
      <rects>
        <_>
          0 14 2 9 -1.</_>
        <_>
          0 17 2 3 3.</_></rects>
      <tilted>0</tilted></_>
    <_>
      <rects>
        <_>
          0 16 8 4 -1.</_>
        <_>
          0 16 4 2 2.</_>
        <_>
          4 18 4 2 2.</_></rects>
      <tilted>0</tilted></_>
    <_>
      <rects>
        <_>
          0 16 20 6 -1.</_>
        <_>
          10 16 10 6 2.</_></rects>
      <tilted>0</tilted></_>
    <_>
      <rects>
        <_>
          0 18 9 5 -1.</_>
        <_>
          3 18 3 5 3.</_></rects>
      <tilted>0</tilted></_>
    <_>
      <rects>
        <_>
          0 18 12 6 -1.</_>
        <_>
          0 18 6 3 2.</_>
        <_>
          6 21 6 3 2.</_></rects>
      <tilted>0</tilted></_>
    <_>
      <rects>
        <_>
          0 18 18 2 -1.</_>
        <_>
          0 18 9 1 2.</_>
        <_>
          9 19 9 1 2.</_></rects>
      <tilted>0</tilted></_>
    <_>
      <rects>
        <_>
          0 19 12 1 -1.</_>
        <_>
          4 19 4 1 3.</_></rects>
      <tilted>0</tilted></_>
    <_>
      <rects>
        <_>
          0 21 4 2 -1.</_>
        <_>
          2 21 2 2 2.</_></rects>
      <tilted>0</tilted></_>
    <_>
      <rects>
        <_>
          0 21 4 3 -1.</_>
        <_>
          2 21 2 3 2.</_></rects>
      <tilted>0</tilted></_>
    <_>
      <rects>
        <_>
          0 21 6 1 -1.</_>
        <_>
          3 21 3 1 2.</_></rects>
      <tilted>0</tilted></_>
    <_>
      <rects>
        <_>
          0 22 24 1 -1.</_>
        <_>
          8 22 8 1 3.</_></rects>
      <tilted>0</tilted></_>
    <_>
      <rects>
        <_>
          0 23 2 1 -1.</_>
        <_>
          1 23 1 1 2.</_></rects>
      <tilted>0</tilted></_>
    <_>
      <rects>
        <_>
          0 23 9 1 -1.</_>
        <_>
          3 23 3 1 3.</_></rects>
      <tilted>0</tilted></_>
    <_>
      <rects>
        <_>
          0 23 15 1 -1.</_>
        <_>
          5 23 5 1 3.</_></rects>
      <tilted>0</tilted></_>
    <_>
      <rects>
        <_>
          1 0 21 19 -1.</_>
        <_>
          8 0 7 19 3.</_></rects>
      <tilted>0</tilted></_>
    <_>
      <rects>
        <_>
          1 1 2 2 -1.</_>
        <_>
          2 1 1 2 2.</_></rects>
      <tilted>0</tilted></_>
    <_>
      <rects>
        <_>
          1 1 18 23 -1.</_>
        <_>
          7 1 6 23 3.</_></rects>
      <tilted>0</tilted></_>
    <_>
      <rects>
        <_>
          1 2 14 11 -1.</_>
        <_>
          8 2 7 11 2.</_></rects>
      <tilted>0</tilted></_>
    <_>
      <rects>
        <_>
          1 3 4 4 -1.</_>
        <_>
          1 3 2 2 2.</_>
        <_>
          3 5 2 2 2.</_></rects>
      <tilted>0</tilted></_>
    <_>
      <rects>
        <_>
          1 4 6 2 -1.</_>
        <_>
          1 4 3 1 2.</_>
        <_>
          4 5 3 1 2.</_></rects>
      <tilted>0</tilted></_>
    <_>
      <rects>
        <_>
          1 6 3 1 -1.</_>
        <_>
          2 6 1 1 3.</_></rects>
      <tilted>0</tilted></_>
    <_>
      <rects>
        <_>
          1 10 19 14 -1.</_>
        <_>
          1 17 19 7 2.</_></rects>
      <tilted>0</tilted></_>
    <_>
      <rects>
        <_>
          1 12 3 2 -1.</_>
        <_>
          2 12 1 2 3.</_></rects>
      <tilted>0</tilted></_>
    <_>
      <rects>
        <_>
          1 22 3 2 -1.</_>
        <_>
          2 22 1 2 3.</_></rects>
      <tilted>0</tilted></_>
    <_>
      <rects>
        <_>
          2 1 4 6 -1.</_>
        <_>
          2 1 2 3 2.</_>
        <_>
          4 4 2 3 2.</_></rects>
      <tilted>0</tilted></_>
    <_>
      <rects>
        <_>
          2 1 10 16 -1.</_>
        <_>
          2 1 5 8 2.</_>
        <_>
          7 9 5 8 2.</_></rects>
      <tilted>0</tilted></_>
    <_>
      <rects>
        <_>
          2 2 2 12 -1.</_>
        <_>
          2 2 1 6 2.</_>
        <_>
          3 8 1 6 2.</_></rects>
      <tilted>0</tilted></_>
    <_>
      <rects>
        <_>
          2 2 6 5 -1.</_>
        <_>
          5 2 3 5 2.</_></rects>
      <tilted>0</tilted></_>
    <_>
      <rects>
        <_>
          2 4 21 2 -1.</_>
        <_>
          9 4 7 2 3.</_></rects>
      <tilted>0</tilted></_>
    <_>
      <rects>
        <_>
          2 5 2 2 -1.</_>
        <_>
          2 5 1 1 2.</_>
        <_>
          3 6 1 1 2.</_></rects>
      <tilted>0</tilted></_>
    <_>
      <rects>
        <_>
          2 5 22 18 -1.</_>
        <_>
          2 11 22 6 3.</_></rects>
      <tilted>0</tilted></_>
    <_>
      <rects>
        <_>
          2 6 4 2 -1.</_>
        <_>
          2 6 2 1 2.</_>
        <_>
          4 7 2 1 2.</_></rects>
      <tilted>0</tilted></_>
    <_>
      <rects>
        <_>
          2 9 20 8 -1.</_>
        <_>
          2 9 10 4 2.</_>
        <_>
          12 13 10 4 2.</_></rects>
      <tilted>0</tilted></_>
    <_>
      <rects>
        <_>
          2 9 16 8 -1.</_>
        <_>
          2 13 16 4 2.</_></rects>
      <tilted>0</tilted></_>
    <_>
      <rects>
        <_>
          2 14 16 10 -1.</_>
        <_>
          10 14 8 10 2.</_></rects>
      <tilted>0</tilted></_>
    <_>
      <rects>
        <_>
          2 16 1 3 -1.</_>
        <_>
          2 17 1 1 3.</_></rects>
      <tilted>0</tilted></_>
    <_>
      <rects>
        <_>
          2 16 12 3 -1.</_>
        <_>
          2 17 12 1 3.</_></rects>
      <tilted>0</tilted></_>
    <_>
      <rects>
        <_>
          2 18 4 6 -1.</_>
        <_>
          2 18 2 3 2.</_>
        <_>
          4 21 2 3 2.</_></rects>
      <tilted>0</tilted></_>
    <_>
      <rects>
        <_>
          2 22 14 2 -1.</_>
        <_>
          2 23 14 1 2.</_></rects>
      <tilted>0</tilted></_>
    <_>
      <rects>
        <_>
          2 22 22 2 -1.</_>
        <_>
          2 23 22 1 2.</_></rects>
      <tilted>0</tilted></_>
    <_>
      <rects>
        <_>
          3 2 8 4 -1.</_>
        <_>
          7 2 4 4 2.</_></rects>
      <tilted>0</tilted></_>
    <_>
      <rects>
        <_>
          3 4 18 6 -1.</_>
        <_>
          9 4 6 6 3.</_></rects>
      <tilted>0</tilted></_>
    <_>
      <rects>
        <_>
          3 4 20 3 -1.</_>
        <_>
          13 4 10 3 2.</_></rects>
      <tilted>0</tilted></_>
    <_>
      <rects>
        <_>
          3 5 6 3 -1.</_>
        <_>
          5 5 2 3 3.</_></rects>
      <tilted>0</tilted></_>
    <_>
      <rects>
        <_>
          3 7 2 2 -1.</_>
        <_>
          3 7 1 1 2.</_>
        <_>
          4 8 1 1 2.</_></rects>
      <tilted>0</tilted></_>
    <_>
      <rects>
        <_>
          3 8 3 15 -1.</_>
        <_>
          3 13 3 5 3.</_></rects>
      <tilted>0</tilted></_>
    <_>
      <rects>
        <_>
          3 9 6 3 -1.</_>
        <_>
          6 9 3 3 2.</_></rects>
      <tilted>0</tilted></_>
    <_>
      <rects>
        <_>
          3 9 6 12 -1.</_>
        <_>
          3 9 3 6 2.</_>
        <_>
          6 15 3 6 2.</_></rects>
      <tilted>0</tilted></_>
    <_>
      <rects>
        <_>
          3 17 4 6 -1.</_>
        <_>
          3 20 4 3 2.</_></rects>
      <tilted>0</tilted></_>
    <_>
      <rects>
        <_>
          3 22 2 2 -1.</_>
        <_>
          3 23 2 1 2.</_></rects>
      <tilted>0</tilted></_>
    <_>
      <rects>
        <_>
          3 22 16 2 -1.</_>
        <_>
          3 22 8 1 2.</_>
        <_>
          11 23 8 1 2.</_></rects>
      <tilted>0</tilted></_>
    <_>
      <rects>
        <_>
          4 1 12 7 -1.</_>
        <_>
          8 1 4 7 3.</_></rects>
      <tilted>0</tilted></_>
    <_>
      <rects>
        <_>
          4 7 8 2 -1.</_>
        <_>
          4 7 4 1 2.</_>
        <_>
          8 8 4 1 2.</_></rects>
      <tilted>0</tilted></_>
    <_>
      <rects>
        <_>
          4 8 6 3 -1.</_>
        <_>
          4 9 6 1 3.</_></rects>
      <tilted>0</tilted></_>
    <_>
      <rects>
        <_>
          4 10 8 3 -1.</_>
        <_>
          4 11 8 1 3.</_></rects>
      <tilted>0</tilted></_>
    <_>
      <rects>
        <_>
          4 12 13 12 -1.</_>
        <_>
          4 18 13 6 2.</_></rects>
      <tilted>0</tilted></_>
    <_>
      <rects>
        <_>
          4 14 1 10 -1.</_>
        <_>
          4 19 1 5 2.</_></rects>
      <tilted>0</tilted></_>
    <_>
      <rects>
        <_>
          4 15 10 8 -1.</_>
        <_>
          9 15 5 8 2.</_></rects>
      <tilted>0</tilted></_>
    <_>
      <rects>
        <_>
          4 18 4 3 -1.</_>
        <_>
          4 19 4 1 3.</_></rects>
      <tilted>0</tilted></_>
    <_>
      <rects>
        <_>
          4 19 7 3 -1.</_>
        <_>
          4 20 7 1 3.</_></rects>
      <tilted>0</tilted></_>
    <_>
      <rects>
        <_>
          4 22 6 2 -1.</_>
        <_>
          7 22 3 2 2.</_></rects>
      <tilted>0</tilted></_>
    <_>
      <rects>
        <_>
          4 23 6 1 -1.</_>
        <_>
          6 23 2 1 3.</_></rects>
      <tilted>0</tilted></_>
    <_>
      <rects>
        <_>
          5 9 6 4 -1.</_>
        <_>
          8 9 3 4 2.</_></rects>
      <tilted>0</tilted></_>
    <_>
      <rects>
        <_>
          5 10 2 2 -1.</_>
        <_>
          5 10 1 1 2.</_>
        <_>
          6 11 1 1 2.</_></rects>
      <tilted>0</tilted></_>
    <_>
      <rects>
        <_>
          5 12 6 2 -1.</_>
        <_>
          5 12 3 1 2.</_>
        <_>
          8 13 3 1 2.</_></rects>
      <tilted>0</tilted></_>
    <_>
      <rects>
        <_>
          5 17 4 3 -1.</_>
        <_>
          7 17 2 3 2.</_></rects>
      <tilted>0</tilted></_>
    <_>
      <rects>
        <_>
          5 21 9 3 -1.</_>
        <_>
          8 21 3 3 3.</_></rects>
      <tilted>0</tilted></_>
    <_>
      <rects>
        <_>
          5 22 6 2 -1.</_>
        <_>
          7 22 2 2 3.</_></rects>
      <tilted>0</tilted></_>
    <_>
      <rects>
        <_>
          5 22 15 2 -1.</_>
        <_>
          10 22 5 2 3.</_></rects>
      <tilted>0</tilted></_>
    <_>
      <rects>
        <_>
          6 0 14 6 -1.</_>
        <_>
          6 2 14 2 3.</_></rects>
      <tilted>0</tilted></_>
    <_>
      <rects>
        <_>
          6 1 7 9 -1.</_>
        <_>
          6 4 7 3 3.</_></rects>
      <tilted>0</tilted></_>
    <_>
      <rects>
        <_>
          6 10 9 3 -1.</_>
        <_>
          6 11 9 1 3.</_></rects>
      <tilted>0</tilted></_>
    <_>
      <rects>
        <_>
          6 11 13 3 -1.</_>
        <_>
          6 12 13 1 3.</_></rects>
      <tilted>0</tilted></_>
    <_>
      <rects>
        <_>
          6 12 13 12 -1.</_>
        <_>
          6 18 13 6 2.</_></rects>
      <tilted>0</tilted></_>
    <_>
      <rects>
        <_>
          6 16 4 8 -1.</_>
        <_>
          8 16 2 8 2.</_></rects>
      <tilted>0</tilted></_>
    <_>
      <rects>
        <_>
          6 18 12 6 -1.</_>
        <_>
          6 20 12 2 3.</_></rects>
      <tilted>0</tilted></_>
    <_>
      <rects>
        <_>
          6 19 3 5 -1.</_>
        <_>
          7 19 1 5 3.</_></rects>
      <tilted>0</tilted></_>
    <_>
      <rects>
        <_>
          6 19 4 2 -1.</_>
        <_>
          8 19 2 2 2.</_></rects>
      <tilted>0</tilted></_>
    <_>
      <rects>
        <_>
          7 0 12 8 -1.</_>
        <_>
          7 4 12 4 2.</_></rects>
      <tilted>0</tilted></_>
    <_>
      <rects>
        <_>
          7 3 1 9 -1.</_>
        <_>
          7 6 1 3 3.</_></rects>
      <tilted>0</tilted></_>
    <_>
      <rects>
        <_>
          7 5 1 6 -1.</_>
        <_>
          7 7 1 2 3.</_></rects>
      <tilted>0</tilted></_>
    <_>
      <rects>
        <_>
          7 8 12 12 -1.</_>
        <_>
          7 12 12 4 3.</_></rects>
      <tilted>0</tilted></_>
    <_>
      <rects>
        <_>
          7 11 9 3 -1.</_>
        <_>
          7 12 9 1 3.</_></rects>
      <tilted>0</tilted></_>
    <_>
      <rects>
        <_>
          7 15 5 3 -1.</_>
        <_>
          7 16 5 1 3.</_></rects>
      <tilted>0</tilted></_>
    <_>
      <rects>
        <_>
          7 18 2 3 -1.</_>
        <_>
          7 19 2 1 3.</_></rects>
      <tilted>0</tilted></_>
    <_>
      <rects>
        <_>
          7 20 3 2 -1.</_>
        <_>
          8 20 1 2 3.</_></rects>
      <tilted>0</tilted></_>
    <_>
      <rects>
        <_>
          7 21 2 3 -1.</_>
        <_>
          8 21 1 3 2.</_></rects>
      <tilted>0</tilted></_>
    <_>
      <rects>
        <_>
          7 22 3 2 -1.</_>
        <_>
          8 22 1 2 3.</_></rects>
      <tilted>0</tilted></_>
    <_>
      <rects>
        <_>
          7 22 6 2 -1.</_>
        <_>
          9 22 2 2 3.</_></rects>
      <tilted>0</tilted></_>
    <_>
      <rects>
        <_>
          7 22 4 2 -1.</_>
        <_>
          7 23 4 1 2.</_></rects>
      <tilted>0</tilted></_>
    <_>
      <rects>
        <_>
          8 0 8 9 -1.</_>
        <_>
          8 3 8 3 3.</_></rects>
      <tilted>0</tilted></_>
    <_>
      <rects>
        <_>
          8 1 7 3 -1.</_>
        <_>
          8 2 7 1 3.</_></rects>
      <tilted>0</tilted></_>
    <_>
      <rects>
        <_>
          8 3 2 4 -1.</_>
        <_>
          8 3 1 2 2.</_>
        <_>
          9 5 1 2 2.</_></rects>
      <tilted>0</tilted></_>
    <_>
      <rects>
        <_>
          8 6 2 2 -1.</_>
        <_>
          8 6 1 1 2.</_>
        <_>
          9 7 1 1 2.</_></rects>
      <tilted>0</tilted></_>
    <_>
      <rects>
        <_>
          8 12 6 7 -1.</_>
        <_>
          10 12 2 7 3.</_></rects>
      <tilted>0</tilted></_>
    <_>
      <rects>
        <_>
          8 16 2 2 -1.</_>
        <_>
          8 16 1 1 2.</_>
        <_>
          9 17 1 1 2.</_></rects>
      <tilted>0</tilted></_>
    <_>
      <rects>
        <_>
          9 0 2 4 -1.</_>
        <_>
          9 2 2 2 2.</_></rects>
      <tilted>0</tilted></_>
    <_>
      <rects>
        <_>
          9 0 6 4 -1.</_>
        <_>
          11 0 2 4 3.</_></rects>
      <tilted>0</tilted></_>
    <_>
      <rects>
        <_>
          9 0 9 1 -1.</_>
        <_>
          12 0 3 1 3.</_></rects>
      <tilted>0</tilted></_>
    <_>
      <rects>
        <_>
          9 12 2 3 -1.</_>
        <_>
          9 13 2 1 3.</_></rects>
      <tilted>0</tilted></_>
    <_>
      <rects>
        <_>
          9 13 9 5 -1.</_>
        <_>
          12 13 3 5 3.</_></rects>
      <tilted>0</tilted></_>
    <_>
      <rects>
        <_>
          9 14 3 10 -1.</_>
        <_>
          10 14 1 10 3.</_></rects>
      <tilted>0</tilted></_>
    <_>
      <rects>
        <_>
          9 14 11 10 -1.</_>
        <_>
          9 19 11 5 2.</_></rects>
      <tilted>0</tilted></_>
    <_>
      <rects>
        <_>
          9 22 2 2 -1.</_>
        <_>
          10 22 1 2 2.</_></rects>
      <tilted>0</tilted></_>
    <_>
      <rects>
        <_>
          9 22 9 2 -1.</_>
        <_>
          12 22 3 2 3.</_></rects>
      <tilted>0</tilted></_>
    <_>
      <rects>
        <_>
          9 23 2 1 -1.</_>
        <_>
          10 23 1 1 2.</_></rects>
      <tilted>0</tilted></_>
    <_>
      <rects>
        <_>
          9 23 3 1 -1.</_>
        <_>
          10 23 1 1 3.</_></rects>
      <tilted>0</tilted></_>
    <_>
      <rects>
        <_>
          10 1 6 2 -1.</_>
        <_>
          12 1 2 2 3.</_></rects>
      <tilted>0</tilted></_>
    <_>
      <rects>
        <_>
          10 3 2 2 -1.</_>
        <_>
          11 3 1 2 2.</_></rects>
      <tilted>0</tilted></_>
    <_>
      <rects>
        <_>
          10 3 6 1 -1.</_>
        <_>
          12 3 2 1 3.</_></rects>
      <tilted>0</tilted></_>
    <_>
      <rects>
        <_>
          10 4 3 3 -1.</_>
        <_>
          11 4 1 3 3.</_></rects>
      <tilted>0</tilted></_>
    <_>
      <rects>
        <_>
          10 4 4 3 -1.</_>
        <_>
          12 4 2 3 2.</_></rects>
      <tilted>0</tilted></_>
    <_>
      <rects>
        <_>
          10 6 4 6 -1.</_>
        <_>
          10 6 2 3 2.</_>
        <_>
          12 9 2 3 2.</_></rects>
      <tilted>0</tilted></_>
    <_>
      <rects>
        <_>
          10 13 3 5 -1.</_>
        <_>
          11 13 1 5 3.</_></rects>
      <tilted>0</tilted></_>
    <_>
      <rects>
        <_>
          10 21 1 3 -1.</_>
        <_>
          10 22 1 1 3.</_></rects>
      <tilted>0</tilted></_>
    <_>
      <rects>
        <_>
          10 22 2 2 -1.</_>
        <_>
          11 22 1 2 2.</_></rects>
      <tilted>0</tilted></_>
    <_>
      <rects>
        <_>
          10 23 9 1 -1.</_>
        <_>
          13 23 3 1 3.</_></rects>
      <tilted>0</tilted></_>
    <_>
      <rects>
        <_>
          11 0 9 1 -1.</_>
        <_>
          14 0 3 1 3.</_></rects>
      <tilted>0</tilted></_>
    <_>
      <rects>
        <_>
          11 0 8 17 -1.</_>
        <_>
          15 0 4 17 2.</_></rects>
      <tilted>0</tilted></_>
    <_>
      <rects>
        <_>
          11 0 12 2 -1.</_>
        <_>
          11 1 12 1 2.</_></rects>
      <tilted>0</tilted></_>
    <_>
      <rects>
        <_>
          11 1 6 2 -1.</_>
        <_>
          13 1 2 2 3.</_></rects>
      <tilted>0</tilted></_>
    <_>
      <rects>
        <_>
          11 1 6 18 -1.</_>
        <_>
          11 1 3 9 2.</_>
        <_>
          14 10 3 9 2.</_></rects>
      <tilted>0</tilted></_>
    <_>
      <rects>
        <_>
          11 4 2 1 -1.</_>
        <_>
          12 4 1 1 2.</_></rects>
      <tilted>0</tilted></_>
    <_>
      <rects>
        <_>
          11 4 2 5 -1.</_>
        <_>
          12 4 1 5 2.</_></rects>
      <tilted>0</tilted></_>
    <_>
      <rects>
        <_>
          11 8 2 1 -1.</_>
        <_>
          12 8 1 1 2.</_></rects>
      <tilted>0</tilted></_>
    <_>
      <rects>
        <_>
          11 8 7 15 -1.</_>
        <_>
          11 13 7 5 3.</_></rects>
      <tilted>0</tilted></_>
    <_>
      <rects>
        <_>
          11 20 6 2 -1.</_>
        <_>
          11 20 3 1 2.</_>
        <_>
          14 21 3 1 2.</_></rects>
      <tilted>0</tilted></_>
    <_>
      <rects>
        <_>
          12 1 8 13 -1.</_>
        <_>
          16 1 4 13 2.</_></rects>
      <tilted>0</tilted></_>
    <_>
      <rects>
        <_>
          12 2 2 1 -1.</_>
        <_>
          13 2 1 1 2.</_></rects>
      <tilted>0</tilted></_>
    <_>
      <rects>
        <_>
          12 2 12 4 -1.</_>
        <_>
          18 2 6 4 2.</_></rects>
      <tilted>0</tilted></_>
    <_>
      <rects>
        <_>
          12 6 1 6 -1.</_>
        <_>
          12 8 1 2 3.</_></rects>
      <tilted>0</tilted></_>
    <_>
      <rects>
        <_>
          12 7 6 1 -1.</_>
        <_>
          15 7 3 1 2.</_></rects>
      <tilted>0</tilted></_>
    <_>
      <rects>
        <_>
          12 9 1 10 -1.</_>
        <_>
          12 14 1 5 2.</_></rects>
      <tilted>0</tilted></_>
    <_>
      <rects>
        <_>
          12 20 2 1 -1.</_>
        <_>
          13 20 1 1 2.</_></rects>
      <tilted>0</tilted></_>
    <_>
      <rects>
        <_>
          12 23 12 1 -1.</_>
        <_>
          16 23 4 1 3.</_></rects>
      <tilted>0</tilted></_>
    <_>
      <rects>
        <_>
          13 0 6 2 -1.</_>
        <_>
          13 1 6 1 2.</_></rects>
      <tilted>0</tilted></_>
    <_>
      <rects>
        <_>
          13 2 6 12 -1.</_>
        <_>
          13 6 6 4 3.</_></rects>
      <tilted>0</tilted></_>
    <_>
      <rects>
        <_>
          13 4 9 6 -1.</_>
        <_>
          13 6 9 2 3.</_></rects>
      <tilted>0</tilted></_>
    <_>
      <rects>
        <_>
          13 6 6 14 -1.</_>
        <_>
          16 6 3 14 2.</_></rects>
      <tilted>0</tilted></_>
    <_>
      <rects>
        <_>
          13 9 3 2 -1.</_>
        <_>
          14 9 1 2 3.</_></rects>
      <tilted>0</tilted></_>
    <_>
      <rects>
        <_>
          13 14 4 2 -1.</_>
        <_>
          13 14 2 1 2.</_>
        <_>
          15 15 2 1 2.</_></rects>
      <tilted>0</tilted></_>
    <_>
      <rects>
        <_>
          13 20 1 3 -1.</_>
        <_>
          13 21 1 1 3.</_></rects>
      <tilted>0</tilted></_>
    <_>
      <rects>
        <_>
          14 8 2 3 -1.</_>
        <_>
          14 9 2 1 3.</_></rects>
      <tilted>0</tilted></_>
    <_>
      <rects>
        <_>
          14 10 5 14 -1.</_>
        <_>
          14 17 5 7 2.</_></rects>
      <tilted>0</tilted></_>
    <_>
      <rects>
        <_>
          14 14 6 6 -1.</_>
        <_>
          14 16 6 2 3.</_></rects>
      <tilted>0</tilted></_>
    <_>
      <rects>
        <_>
          14 15 9 5 -1.</_>
        <_>
          17 15 3 5 3.</_></rects>
      <tilted>0</tilted></_>
    <_>
      <rects>
        <_>
          14 15 9 9 -1.</_>
        <_>
          17 15 3 9 3.</_></rects>
      <tilted>0</tilted></_>
    <_>
      <rects>
        <_>
          14 22 10 2 -1.</_>
        <_>
          19 22 5 2 2.</_></rects>
      <tilted>0</tilted></_>
    <_>
      <rects>
        <_>
          15 4 3 5 -1.</_>
        <_>
          16 4 1 5 3.</_></rects>
      <tilted>0</tilted></_>
    <_>
      <rects>
        <_>
          15 5 2 6 -1.</_>
        <_>
          15 7 2 2 3.</_></rects>
      <tilted>0</tilted></_>
    <_>
      <rects>
        <_>
          15 7 2 1 -1.</_>
        <_>
          16 7 1 1 2.</_></rects>
      <tilted>0</tilted></_>
    <_>
      <rects>
        <_>
          15 13 9 9 -1.</_>
        <_>
          18 13 3 9 3.</_></rects>
      <tilted>0</tilted></_>
    <_>
      <rects>
        <_>
          15 14 9 10 -1.</_>
        <_>
          18 14 3 10 3.</_></rects>
      <tilted>0</tilted></_>
    <_>
      <rects>
        <_>
          15 15 3 4 -1.</_>
        <_>
          16 15 1 4 3.</_></rects>
      <tilted>0</tilted></_>
    <_>
      <rects>
        <_>
          15 17 9 2 -1.</_>
        <_>
          18 17 3 2 3.</_></rects>
      <tilted>0</tilted></_>
    <_>
      <rects>
        <_>
          15 22 2 2 -1.</_>
        <_>
          15 23 2 1 2.</_></rects>
      <tilted>0</tilted></_>
    <_>
      <rects>
        <_>
          16 0 3 12 -1.</_>
        <_>
          16 4 3 4 3.</_></rects>
      <tilted>0</tilted></_>
    <_>
      <rects>
        <_>
          16 1 1 3 -1.</_>
        <_>
          16 2 1 1 3.</_></rects>
      <tilted>0</tilted></_>
    <_>
      <rects>
        <_>
          16 1 2 12 -1.</_>
        <_>
          16 1 1 6 2.</_>
        <_>
          17 7 1 6 2.</_></rects>
      <tilted>0</tilted></_>
    <_>
      <rects>
        <_>
          16 1 7 12 -1.</_>
        <_>
          16 5 7 4 3.</_></rects>
      <tilted>0</tilted></_>
    <_>
      <rects>
        <_>
          16 3 4 6 -1.</_>
        <_>
          16 3 2 3 2.</_>
        <_>
          18 6 2 3 2.</_></rects>
      <tilted>0</tilted></_>
    <_>
      <rects>
        <_>
          16 7 4 2 -1.</_>
        <_>
          16 7 2 1 2.</_>
        <_>
          18 8 2 1 2.</_></rects>
      <tilted>0</tilted></_>
    <_>
      <rects>
        <_>
          16 8 2 5 -1.</_>
        <_>
          17 8 1 5 2.</_></rects>
      <tilted>0</tilted></_>
    <_>
      <rects>
        <_>
          16 9 2 4 -1.</_>
        <_>
          16 9 1 2 2.</_>
        <_>
          17 11 1 2 2.</_></rects>
      <tilted>0</tilted></_>
    <_>
      <rects>
        <_>
          16 12 3 2 -1.</_>
        <_>
          16 13 3 1 2.</_></rects>
      <tilted>0</tilted></_>
    <_>
      <rects>
        <_>
          16 22 6 1 -1.</_>
        <_>
          19 22 3 1 2.</_></rects>
      <tilted>0</tilted></_>
    <_>
      <rects>
        <_>
          16 22 6 2 -1.</_>
        <_>
          16 23 6 1 2.</_></rects>
      <tilted>0</tilted></_>
    <_>
      <rects>
        <_>
          17 1 4 21 -1.</_>
        <_>
          17 8 4 7 3.</_></rects>
      <tilted>0</tilted></_>
    <_>
      <rects>
        <_>
          17 2 6 6 -1.</_>
        <_>
          17 2 3 3 2.</_>
        <_>
          20 5 3 3 2.</_></rects>
      <tilted>0</tilted></_>
    <_>
      <rects>
        <_>
          17 3 4 6 -1.</_>
        <_>
          17 3 2 3 2.</_>
        <_>
          19 6 2 3 2.</_></rects>
      <tilted>0</tilted></_>
    <_>
      <rects>
        <_>
          17 4 2 2 -1.</_>
        <_>
          17 4 1 1 2.</_>
        <_>
          18 5 1 1 2.</_></rects>
      <tilted>0</tilted></_>
    <_>
      <rects>
        <_>
          17 11 2 2 -1.</_>
        <_>
          18 11 1 2 2.</_></rects>
      <tilted>0</tilted></_>
    <_>
      <rects>
        <_>
          17 17 2 3 -1.</_>
        <_>
          17 18 2 1 3.</_></rects>
      <tilted>0</tilted></_>
    <_>
      <rects>
        <_>
          17 20 7 4 -1.</_>
        <_>
          17 22 7 2 2.</_></rects>
      <tilted>0</tilted></_>
    <_>
      <rects>
        <_>
          18 1 2 21 -1.</_>
        <_>
          18 8 2 7 3.</_></rects>
      <tilted>0</tilted></_>
    <_>
      <rects>
        <_>
          18 1 6 23 -1.</_>
        <_>
          20 1 2 23 3.</_></rects>
      <tilted>0</tilted></_>
    <_>
      <rects>
        <_>
          18 3 6 15 -1.</_>
        <_>
          18 8 6 5 3.</_></rects>
      <tilted>0</tilted></_>
    <_>
      <rects>
        <_>
          18 5 2 6 -1.</_>
        <_>
          19 5 1 6 2.</_></rects>
      <tilted>0</tilted></_>
    <_>
      <rects>
        <_>
          18 5 6 8 -1.</_>
        <_>
          18 5 3 4 2.</_>
        <_>
          21 9 3 4 2.</_></rects>
      <tilted>0</tilted></_>
    <_>
      <rects>
        <_>
          18 6 2 2 -1.</_>
        <_>
          18 6 1 1 2.</_>
        <_>
          19 7 1 1 2.</_></rects>
      <tilted>0</tilted></_>
    <_>
      <rects>
        <_>
          18 8 1 3 -1.</_>
        <_>
          18 9 1 1 3.</_></rects>
      <tilted>0</tilted></_>
    <_>
      <rects>
        <_>
          18 12 3 2 -1.</_>
        <_>
          19 12 1 2 3.</_></rects>
      <tilted>0</tilted></_>
    <_>
      <rects>
        <_>
          18 15 6 2 -1.</_>
        <_>
          20 15 2 2 3.</_></rects>
      <tilted>0</tilted></_>
    <_>
      <rects>
        <_>
          19 5 2 2 -1.</_>
        <_>
          19 5 1 1 2.</_>
        <_>
          20 6 1 1 2.</_></rects>
      <tilted>0</tilted></_>
    <_>
      <rects>
        <_>
          19 5 4 6 -1.</_>
        <_>
          19 5 2 3 2.</_>
        <_>
          21 8 2 3 2.</_></rects>
      <tilted>0</tilted></_>
    <_>
      <rects>
        <_>
          19 7 3 1 -1.</_>
        <_>
          20 7 1 1 3.</_></rects>
      <tilted>0</tilted></_>
    <_>
      <rects>
        <_>
          19 7 3 11 -1.</_>
        <_>
          20 7 1 11 3.</_></rects>
      <tilted>0</tilted></_>
    <_>
      <rects>
        <_>
          19 13 2 4 -1.</_>
        <_>
          19 15 2 2 2.</_></rects>
      <tilted>0</tilted></_>
    <_>
      <rects>
        <_>
          19 14 2 6 -1.</_>
        <_>
          19 14 1 3 2.</_>
        <_>
          20 17 1 3 2.</_></rects>
      <tilted>0</tilted></_>
    <_>
      <rects>
        <_>
          19 15 3 1 -1.</_>
        <_>
          20 15 1 1 3.</_></rects>
      <tilted>0</tilted></_>
    <_>
      <rects>
        <_>
          19 15 4 2 -1.</_>
        <_>
          21 15 2 2 2.</_></rects>
      <tilted>0</tilted></_>
    <_>
      <rects>
        <_>
          19 18 3 2 -1.</_>
        <_>
          19 19 3 1 2.</_></rects>
      <tilted>0</tilted></_>
    <_>
      <rects>
        <_>
          19 23 4 1 -1.</_>
        <_>
          21 23 2 1 2.</_></rects>
      <tilted>0</tilted></_>
    <_>
      <rects>
        <_>
          20 4 1 10 -1.</_>
        <_>
          20 9 1 5 2.</_></rects>
      <tilted>0</tilted></_>
    <_>
      <rects>
        <_>
          20 7 2 2 -1.</_>
        <_>
          20 7 1 1 2.</_>
        <_>
          21 8 1 1 2.</_></rects>
      <tilted>0</tilted></_>
    <_>
      <rects>
        <_>
          20 12 3 2 -1.</_>
        <_>
          21 12 1 2 3.</_></rects>
      <tilted>0</tilted></_>
    <_>
      <rects>
        <_>
          20 14 3 6 -1.</_>
        <_>
          21 14 1 6 3.</_></rects>
      <tilted>0</tilted></_>
    <_>
      <rects>
        <_>
          20 14 4 3 -1.</_>
        <_>
          20 15 4 1 3.</_></rects>
      <tilted>0</tilted></_>
    <_>
      <rects>
        <_>
          21 0 3 20 -1.</_>
        <_>
          21 10 3 10 2.</_></rects>
      <tilted>0</tilted></_>
    <_>
      <rects>
        <_>
          21 10 3 2 -1.</_>
        <_>
          22 10 1 2 3.</_></rects>
      <tilted>0</tilted></_>
    <_>
      <rects>
        <_>
          21 10 3 5 -1.</_>
        <_>
          22 10 1 5 3.</_></rects>
      <tilted>0</tilted></_>
    <_>
      <rects>
        <_>
          21 10 3 2 -1.</_>
        <_>
          21 11 3 1 2.</_></rects>
      <tilted>0</tilted></_>
    <_>
      <rects>
        <_>
          21 11 3 2 -1.</_>
        <_>
          22 11 1 2 3.</_></rects>
      <tilted>0</tilted></_>
    <_>
      <rects>
        <_>
          21 13 2 3 -1.</_>
        <_>
          22 13 1 3 2.</_></rects>
      <tilted>0</tilted></_>
    <_>
      <rects>
        <_>
          21 14 3 2 -1.</_>
        <_>
          22 14 1 2 3.</_></rects>
      <tilted>0</tilted></_>
    <_>
      <rects>
        <_>
          21 18 2 2 -1.</_>
        <_>
          21 18 1 1 2.</_>
        <_>
          22 19 1 1 2.</_></rects>
      <tilted>0</tilted></_>
    <_>
      <rects>
        <_>
          21 20 3 2 -1.</_>
        <_>
          21 21 3 1 2.</_></rects>
      <tilted>0</tilted></_>
    <_>
      <rects>
        <_>
          22 11 2 4 -1.</_>
        <_>
          23 11 1 4 2.</_></rects>
      <tilted>0</tilted></_>
    <_>
      <rects>
        <_>
          22 12 2 5 -1.</_>
        <_>
          23 12 1 5 2.</_></rects>
      <tilted>0</tilted></_>
    <_>
      <rects>
        <_>
          22 16 2 6 -1.</_>
        <_>
          22 18 2 2 3.</_></rects>
      <tilted>0</tilted></_>
    <_>
      <rects>
        <_>
          22 23 2 1 -1.</_>
        <_>
          23 23 1 1 2.</_></rects>
      <tilted>0</tilted></_>
    <_>
      <rects>
        <_>
          23 6 1 15 -1.</_>
        <_>
          23 11 1 5 3.</_></rects>
      <tilted>0</tilted></_>
    <_>
      <rects>
        <_>
          23 11 1 2 -1.</_>
        <_>
          23 12 1 1 2.</_></rects>
      <tilted>0</tilted></_>
    <_>
      <rects>
        <_>
          23 17 1 4 -1.</_>
        <_>
          23 19 1 2 2.</_></rects>
      <tilted>0</tilted></_></features></cascade>
</opencv_storage>
