<?xml version="1.0"?>
<opencv_storage>
<cascade>
  <stageType>BOOST</stageType>
  <featureType>HAAR</featureType>
  <height>24</height>
  <width>24</width>
  <stageParams>
    <boostType>GAB</boostType>
    <minHitRate>9.9500000476837158e-01</minHitRate>
    <maxFalseAlarm>5.0000000000000000e-01</maxFalseAlarm>
    <weightTrimRate>9.4999998807907104e-01</weightTrimRate>
    <maxDepth>1</maxDepth>
    <maxWeakCount>100</maxWeakCount></stageParams>
  <featureParams>
    <maxCatCount>0</maxCatCount>
    <featSize>1</featSize>
    <mode>BASIC</mode></featureParams>
  <stageNum>20</stageNum>
  <stages>
    <!-- stage 0 -->
    <_>
      <maxWeakCount>7</maxWeakCount>
      <stageThreshold>-1.6396994590759277e+00</stageThreshold>
      <weakClassifiers>
        <_>
          <internalNodes>
            0 -1 188 -6.4493259415030479e-03</internalNodes>
          <leafValues>
            6.1316871643066406e-01 -5.0804597139358521e-01</leafValues></_>
        <_>
          <internalNodes>
            0 -1 180 3.2285152701660991e-04</internalNodes>
          <leafValues>
            -6.3133674860000610e-01 5.1639580726623535e-01</leafValues></_>
        <_>
          <internalNodes>
            0 -1 137 -4.4142263941466808e-03</internalNodes>
          <leafValues>
            7.5880777835845947e-01 -3.3501154184341431e-01</leafValues></_>
        <_>
          <internalNodes>
            0 -1 67 -1.5793307684361935e-03</internalNodes>
          <leafValues>
            4.5127302408218384e-01 -5.2525347471237183e-01</leafValues></_>
        <_>
          <internalNodes>
            0 -1 166 -1.0696330573409796e-03</internalNodes>
          <leafValues>
            8.3275473117828369e-01 -2.7955242991447449e-01</leafValues></_>
        <_>
          <internalNodes>
            0 -1 84 -1.2115210294723511e-02</internalNodes>
          <leafValues>
            6.9854855537414551e-01 -1.9212964177131653e-01</leafValues></_>
        <_>
          <internalNodes>
            0 -1 186 -4.4253113446757197e-04</internalNodes>
          <leafValues>
            6.5356218814849854e-01 -3.1610220670700073e-01</leafValues></_></weakClassifiers></_>
    <!-- stage 1 -->
    <_>
      <maxWeakCount>7</maxWeakCount>
      <stageThreshold>-1.2291641235351563e+00</stageThreshold>
      <weakClassifiers>
        <_>
          <internalNodes>
            0 -1 94 -1.5486618503928185e-02</internalNodes>
          <leafValues>
            5.4337900876998901e-01 -4.1612198948860168e-01</leafValues></_>
        <_>
          <internalNodes>
            0 -1 42 2.1921657025814056e-03</internalNodes>
          <leafValues>
            -5.1190197467803955e-01 3.7478131055831909e-01</leafValues></_>
        <_>
          <internalNodes>
            0 -1 18 -4.2452095076441765e-03</internalNodes>
          <leafValues>
            3.1786680221557617e-01 -5.9047275781631470e-01</leafValues></_>
        <_>
          <internalNodes>
            0 -1 182 -1.3710269704461098e-03</internalNodes>
          <leafValues>
            5.9157037734985352e-01 -2.9147914052009583e-01</leafValues></_>
        <_>
          <internalNodes>
            0 -1 225 3.3987897040788084e-05</internalNodes>
          <leafValues>
            -5.2508401870727539e-01 3.3570113778114319e-01</leafValues></_>
        <_>
          <internalNodes>
            0 -1 16 -1.8635036423802376e-02</internalNodes>
          <leafValues>
            5.2829247713088989e-01 -3.5668325424194336e-01</leafValues></_>
        <_>
          <internalNodes>
            0 -1 139 -2.2068610414862633e-03</internalNodes>
          <leafValues>
            5.5011439323425293e-01 -3.3073636889457703e-01</leafValues></_></weakClassifiers></_>
    <!-- stage 2 -->
    <_>
      <maxWeakCount>7</maxWeakCount>
      <stageThreshold>-8.0155640840530396e-01</stageThreshold>
      <weakClassifiers>
        <_>
          <internalNodes>
            0 -1 136 -2.4727650452405214e-03</internalNodes>
          <leafValues>
            6.5625000000000000e-01 -4.0740740299224854e-01</leafValues></_>
        <_>
          <internalNodes>
            0 -1 14 2.8915617614984512e-02</internalNodes>
          <leafValues>
            2.4456194043159485e-01 -8.5917186737060547e-01</leafValues></_>
        <_>
          <internalNodes>
            0 -1 155 -5.2209207788109779e-03</internalNodes>
          <leafValues>
            7.0444363355636597e-01 -3.0437928438186646e-01</leafValues></_>
        <_>
          <internalNodes>
            0 -1 154 -5.3937705233693123e-03</internalNodes>
          <leafValues>
            7.5959694385528564e-01 -2.0178432762622833e-01</leafValues></_>
        <_>
          <internalNodes>
            0 -1 111 6.1010029166936874e-03</internalNodes>
          <leafValues>
            -1.8169462680816650e-01 6.4762973785400391e-01</leafValues></_>
        <_>
          <internalNodes>
            0 -1 120 -3.7622652016580105e-03</internalNodes>
          <leafValues>
            6.4651477336883545e-01 -2.5687101483345032e-01</leafValues></_>
        <_>
          <internalNodes>
            0 -1 50 -6.2846299260854721e-03</internalNodes>
          <leafValues>
            3.4501957893371582e-01 -5.2330607175827026e-01</leafValues></_></weakClassifiers></_>
    <!-- stage 3 -->
    <_>
      <maxWeakCount>7</maxWeakCount>
      <stageThreshold>-1.0947997570037842e+00</stageThreshold>
      <weakClassifiers>
        <_>
          <internalNodes>
            0 -1 165 -1.7951218178495765e-03</internalNodes>
          <leafValues>
            6.6081869602203369e-01 -3.6489152908325195e-01</leafValues></_>
        <_>
          <internalNodes>
            0 -1 214 -8.6692627519369125e-04</internalNodes>
          <leafValues>
            5.5643630027770996e-01 -3.1094810366630554e-01</leafValues></_>
        <_>
          <internalNodes>
            0 -1 71 -7.0783309638500214e-03</internalNodes>
          <leafValues>
            6.2094932794570923e-01 -3.1909716129302979e-01</leafValues></_>
        <_>
          <internalNodes>
            0 -1 119 -2.2735269740223885e-03</internalNodes>
          <leafValues>
            6.7304164171218872e-01 -2.2513172030448914e-01</leafValues></_>
        <_>
          <internalNodes>
            0 -1 174 -2.4481243453919888e-03</internalNodes>
          <leafValues>
            6.1938941478729248e-01 -2.5847324728965759e-01</leafValues></_>
        <_>
          <internalNodes>
            0 -1 151 5.3082415834069252e-03</internalNodes>
          <leafValues>
            -2.5745692849159241e-01 7.0089739561080933e-01</leafValues></_>
        <_>
          <internalNodes>
            0 -1 200 6.9329896941781044e-03</internalNodes>
          <leafValues>
            -2.3666369915008545e-01 5.8843564987182617e-01</leafValues></_></weakClassifiers></_>
    <!-- stage 4 -->
    <_>
      <maxWeakCount>10</maxWeakCount>
      <stageThreshold>-9.4980061054229736e-01</stageThreshold>
      <weakClassifiers>
        <_>
          <internalNodes>
            0 -1 197 -8.1395823508501053e-03</internalNodes>
          <leafValues>
            4.8148149251937866e-01 -3.8095238804817200e-01</leafValues></_>
        <_>
          <internalNodes>
            0 -1 184 3.3445386216044426e-03</internalNodes>
          <leafValues>
            -3.1581857800483704e-01 4.8463547229766846e-01</leafValues></_>
        <_>
          <internalNodes>
            0 -1 51 8.4535148926079273e-04</internalNodes>
          <leafValues>
            -5.3230297565460205e-01 2.4940583109855652e-01</leafValues></_>
        <_>
          <internalNodes>
            0 -1 86 -3.8393239956349134e-03</internalNodes>
          <leafValues>
            5.9515243768692017e-01 -2.2836083173751831e-01</leafValues></_>
        <_>
          <internalNodes>
            0 -1 65 -3.1991906464099884e-02</internalNodes>
          <leafValues>
            4.2043590545654297e-01 -3.1788066029548645e-01</leafValues></_>
        <_>
          <internalNodes>
            0 -1 126 -6.0459431260824203e-03</internalNodes>
          <leafValues>
            6.1652112007141113e-01 -1.9908004999160767e-01</leafValues></_>
        <_>
          <internalNodes>
            0 -1 198 3.8130441680550575e-03</internalNodes>
          <leafValues>
            -2.1451219916343689e-01 5.9857249259948730e-01</leafValues></_>
        <_>
          <internalNodes>
            0 -1 206 5.9330775402486324e-03</internalNodes>
          <leafValues>
            -3.8235560059547424e-01 3.2602798938751221e-01</leafValues></_>
        <_>
          <internalNodes>
            0 -1 215 -1.2766052968800068e-03</internalNodes>
          <leafValues>
            5.3964358568191528e-01 -2.5682312250137329e-01</leafValues></_>
        <_>
          <internalNodes>
            0 -1 222 -6.5407552756369114e-04</internalNodes>
          <leafValues>
            3.3611232042312622e-01 -4.2489126324653625e-01</leafValues></_></weakClassifiers></_>
    <!-- stage 5 -->
    <_>
      <maxWeakCount>11</maxWeakCount>
      <stageThreshold>-1.2485508918762207e+00</stageThreshold>
      <weakClassifiers>
        <_>
          <internalNodes>
            0 -1 34 -5.4344814270734787e-03</internalNodes>
          <leafValues>
            4.5251396298408508e-01 -3.0661323666572571e-01</leafValues></_>
        <_>
          <internalNodes>
            0 -1 115 -9.4852712936699390e-04</internalNodes>
          <leafValues>
            3.2019424438476563e-01 -3.6903202533721924e-01</leafValues></_>
        <_>
          <internalNodes>
            0 -1 107 -4.1310135275125504e-03</internalNodes>
          <leafValues>
            4.0556427836418152e-01 -2.8968495130538940e-01</leafValues></_>
        <_>
          <internalNodes>
            0 -1 153 -9.4792330637574196e-03</internalNodes>
          <leafValues>
            3.9340433478355408e-01 -3.1796813011169434e-01</leafValues></_>
        <_>
          <internalNodes>
            0 -1 45 -4.7922343946993351e-03</internalNodes>
          <leafValues>
            7.5743770599365234e-01 -1.3093043863773346e-01</leafValues></_>
        <_>
          <internalNodes>
            0 -1 202 -3.5465791006572545e-04</internalNodes>
          <leafValues>
            6.1048007011413574e-01 -1.8219982087612152e-01</leafValues></_>
        <_>
          <internalNodes>
            0 -1 62 3.4282105043530464e-03</internalNodes>
          <leafValues>
            -1.5655426681041718e-01 6.1432141065597534e-01</leafValues></_>
        <_>
          <internalNodes>
            0 -1 158 -1.7797274049371481e-03</internalNodes>
          <leafValues>
            4.0805849432945251e-01 -2.9014837741851807e-01</leafValues></_>
        <_>
          <internalNodes>
            0 -1 205 9.6714142709970474e-03</internalNodes>
          <leafValues>
            -3.7079843878746033e-01 3.2362556457519531e-01</leafValues></_>
        <_>
          <internalNodes>
            0 -1 47 -1.1256156489253044e-02</internalNodes>
          <leafValues>
            5.9566718339920044e-01 -1.7170816659927368e-01</leafValues></_>
        <_>
          <internalNodes>
            0 -1 110 1.0097733698785305e-02</internalNodes>
          <leafValues>
            -1.4481928944587708e-01 7.5599354505538940e-01</leafValues></_></weakClassifiers></_>
    <!-- stage 6 -->
    <_>
      <maxWeakCount>11</maxWeakCount>
      <stageThreshold>-9.5066487789154053e-01</stageThreshold>
      <weakClassifiers>
        <_>
          <internalNodes>
            0 -1 227 3.8806327211204916e-05</internalNodes>
          <leafValues>
            -5.0000000000000000e-01 1.5121951699256897e-01</leafValues></_>
        <_>
          <internalNodes>
            0 -1 49 -9.2393791419453919e-05</internalNodes>
          <leafValues>
            2.1866625547409058e-01 -4.5397639274597168e-01</leafValues></_>
        <_>
          <internalNodes>
            0 -1 155 -7.4844388291239738e-03</internalNodes>
          <leafValues>
            5.3417366743087769e-01 -2.0721332728862762e-01</leafValues></_>
        <_>
          <internalNodes>
            0 -1 106 -1.5249619260430336e-02</internalNodes>
          <leafValues>
            6.4249718189239502e-01 -1.1693879216909409e-01</leafValues></_>
        <_>
          <internalNodes>
            0 -1 109 -2.2892828565090895e-03</internalNodes>
          <leafValues>
            5.8546245098114014e-01 -2.0558978617191315e-01</leafValues></_>
        <_>
          <internalNodes>
            0 -1 243 5.6183245033025742e-03</internalNodes>
          <leafValues>
            1.8739835917949677e-01 -6.6817259788513184e-01</leafValues></_>
        <_>
          <internalNodes>
            0 -1 123 -7.1158520877361298e-03</internalNodes>
          <leafValues>
            5.0745111703872681e-01 -2.3534089326858521e-01</leafValues></_>
        <_>
          <internalNodes>
            0 -1 248 7.7634565532207489e-03</internalNodes>
          <leafValues>
            1.6223855316638947e-01 -8.5392731428146362e-01</leafValues></_>
        <_>
          <internalNodes>
            0 -1 100 1.2526970822364092e-03</internalNodes>
          <leafValues>
            -2.4193772673606873e-01 5.5796003341674805e-01</leafValues></_>
        <_>
          <internalNodes>
            0 -1 118 -4.0842308662831783e-03</internalNodes>
          <leafValues>
            6.5357530117034912e-01 -1.4852868020534515e-01</leafValues></_>
        <_>
          <internalNodes>
            0 -1 56 -4.0872460231184959e-03</internalNodes>
          <leafValues>
            4.1167688369750977e-01 -2.9837027192115784e-01</leafValues></_></weakClassifiers></_>
    <!-- stage 7 -->
    <_>
      <maxWeakCount>11</maxWeakCount>
      <stageThreshold>-8.9103686809539795e-01</stageThreshold>
      <weakClassifiers>
        <_>
          <internalNodes>
            0 -1 40 -8.5128040518611670e-04</internalNodes>
          <leafValues>
            9.4188377261161804e-02 -6.6480445861816406e-01</leafValues></_>
        <_>
          <internalNodes>
            0 -1 172 -2.6186596602201462e-02</internalNodes>
          <leafValues>
            4.4912675023078918e-01 -2.3557697236537933e-01</leafValues></_>
        <_>
          <internalNodes>
            0 -1 21 2.3564261209685355e-04</internalNodes>
          <leafValues>
            1.3491518795490265e-01 -7.7828603982925415e-01</leafValues></_>
        <_>
          <internalNodes>
            0 -1 236 -1.8826834857463837e-02</internalNodes>
          <leafValues>
            -9.1537111997604370e-01 1.0120954364538193e-01</leafValues></_>
        <_>
          <internalNodes>
            0 -1 233 2.9969247407279909e-05</internalNodes>
          <leafValues>
            -4.0541166067123413e-01 2.7465242147445679e-01</leafValues></_>
        <_>
          <internalNodes>
            0 -1 133 5.2402794361114502e-02</internalNodes>
          <leafValues>
            -2.1333408355712891e-01 5.3414028882980347e-01</leafValues></_>
        <_>
          <internalNodes>
            0 -1 108 -3.7239518016576767e-02</internalNodes>
          <leafValues>
            4.8914355039596558e-01 -2.3088566958904266e-01</leafValues></_>
        <_>
          <internalNodes>
            0 -1 102 3.1657426006859168e-05</internalNodes>
          <leafValues>
            -3.3146840333938599e-01 3.1877553462982178e-01</leafValues></_>
        <_>
          <internalNodes>
            0 -1 234 -3.2487648422829807e-04</internalNodes>
          <leafValues>
            -6.5201371908187866e-01 1.4738982915878296e-01</leafValues></_>
        <_>
          <internalNodes>
            0 -1 140 -4.0962882339954376e-03</internalNodes>
          <leafValues>
            4.7869250178337097e-01 -2.3904772102832794e-01</leafValues></_>
        <_>
          <internalNodes>
            0 -1 116 -3.0996091663837433e-03</internalNodes>
          <leafValues>
            3.2229727506637573e-01 -3.1834474205970764e-01</leafValues></_></weakClassifiers></_>
    <!-- stage 8 -->
    <_>
      <maxWeakCount>12</maxWeakCount>
      <stageThreshold>-8.9882218837738037e-01</stageThreshold>
      <weakClassifiers>
        <_>
          <internalNodes>
            0 -1 69 7.6486156322062016e-03</internalNodes>
          <leafValues>
            -3.6868685483932495e-01 2.6241135597229004e-01</leafValues></_>
        <_>
          <internalNodes>
            0 -1 175 -9.6719078719615936e-03</internalNodes>
          <leafValues>
            5.2907264232635498e-01 -1.7513668537139893e-01</leafValues></_>
        <_>
          <internalNodes>
            0 -1 31 4.4585962314158678e-04</internalNodes>
          <leafValues>
            9.9103964865207672e-02 -7.2365611791610718e-01</leafValues></_>
        <_>
          <internalNodes>
            0 -1 213 -7.4265082366764545e-04</internalNodes>
          <leafValues>
            5.5198460817337036e-01 -1.2713424861431122e-01</leafValues></_>
        <_>
          <internalNodes>
            0 -1 241 -7.2916282806545496e-04</internalNodes>
          <leafValues>
            -7.9814010858535767e-01 9.2747732996940613e-02</leafValues></_>
        <_>
          <internalNodes>
            0 -1 240 6.5241951961070299e-04</internalNodes>
          <leafValues>
            1.7518377304077148e-01 -5.4751455783843994e-01</leafValues></_>
        <_>
          <internalNodes>
            0 -1 38 -4.7346223145723343e-03</internalNodes>
          <leafValues>
            6.1474531888961792e-01 -1.6831104457378387e-01</leafValues></_>
        <_>
          <internalNodes>
            0 -1 87 5.8805644512176514e-03</internalNodes>
          <leafValues>
            -2.6932081580162048e-01 3.7480312585830688e-01</leafValues></_>
        <_>
          <internalNodes>
            0 -1 39 -5.9502948075532913e-02</internalNodes>
          <leafValues>
            5.0970202684402466e-01 -1.7987954616546631e-01</leafValues></_>
        <_>
          <internalNodes>
            0 -1 199 -2.0189010538160801e-03</internalNodes>
          <leafValues>
            3.9188253879547119e-01 -2.4593780934810638e-01</leafValues></_>
        <_>
          <internalNodes>
            0 -1 245 -1.4499138342216611e-03</internalNodes>
          <leafValues>
            -7.8656226396560669e-01 1.1764775961637497e-01</leafValues></_>
        <_>
          <internalNodes>
            0 -1 4 9.9698686972260475e-03</internalNodes>
          <leafValues>
            -1.7653103172779083e-01 5.5186939239501953e-01</leafValues></_></weakClassifiers></_>
    <!-- stage 9 -->
    <_>
      <maxWeakCount>15</maxWeakCount>
      <stageThreshold>-1.0474501848220825e+00</stageThreshold>
      <weakClassifiers>
        <_>
          <internalNodes>
            0 -1 134 -7.5912671163678169e-03</internalNodes>
          <leafValues>
            5.7377046346664429e-01 -2.5539568066596985e-01</leafValues></_>
        <_>
          <internalNodes>
            0 -1 2 -4.7879442572593689e-02</internalNodes>
          <leafValues>
            -6.6239237785339355e-01 1.6262240707874298e-01</leafValues></_>
        <_>
          <internalNodes>
            0 -1 223 -1.6647491138428450e-03</internalNodes>
          <leafValues>
            2.6984408497810364e-01 -3.6448010802268982e-01</leafValues></_>
        <_>
          <internalNodes>
            0 -1 127 8.6712930351495743e-04</internalNodes>
          <leafValues>
            -1.6500125825405121e-01 5.2337020635604858e-01</leafValues></_>
        <_>
          <internalNodes>
            0 -1 23 -3.9036669768393040e-03</internalNodes>
          <leafValues>
            -7.5480550527572632e-01 1.1256521195173264e-01</leafValues></_>
        <_>
          <internalNodes>
            0 -1 207 1.9489906844682992e-04</internalNodes>
          <leafValues>
            -3.0701959133148193e-01 3.1091120839118958e-01</leafValues></_>
        <_>
          <internalNodes>
            0 -1 22 1.0875962907448411e-03</internalNodes>
          <leafValues>
            1.5291611850261688e-01 -5.4319405555725098e-01</leafValues></_>
        <_>
          <internalNodes>
            0 -1 179 1.5527801588177681e-03</internalNodes>
          <leafValues>
            -3.7836289405822754e-01 3.0869165062904358e-01</leafValues></_>
        <_>
          <internalNodes>
            0 -1 92 8.0883421469479799e-04</internalNodes>
          <leafValues>
            -1.1446729302406311e-01 7.5039607286453247e-01</leafValues></_>
        <_>
          <internalNodes>
            0 -1 138 -1.1730126570910215e-03</internalNodes>
          <leafValues>
            4.9334740638732910e-01 -1.8684500455856323e-01</leafValues></_>
        <_>
          <internalNodes>
            0 -1 238 -1.6922093927860260e-03</internalNodes>
          <leafValues>
            -5.8594912290573120e-01 1.7776541411876678e-01</leafValues></_>
        <_>
          <internalNodes>
            0 -1 95 -7.0924502797424793e-03</internalNodes>
          <leafValues>
            8.8307940959930420e-01 -1.4142656326293945e-01</leafValues></_>
        <_>
          <internalNodes>
            0 -1 183 -1.9941432401537895e-02</internalNodes>
          <leafValues>
            4.3939593434333801e-01 -2.5919425487518311e-01</leafValues></_>
        <_>
          <internalNodes>
            0 -1 88 -1.7674624919891357e-02</internalNodes>
          <leafValues>
            4.0565598011016846e-01 -2.5423505902290344e-01</leafValues></_>
        <_>
          <internalNodes>
            0 -1 224 3.3419852115912363e-05</internalNodes>
          <leafValues>
            -4.0344795584678650e-01 2.3064501583576202e-01</leafValues></_></weakClassifiers></_>
    <!-- stage 10 -->
    <_>
      <maxWeakCount>18</maxWeakCount>
      <stageThreshold>-9.8882442712783813e-01</stageThreshold>
      <weakClassifiers>
        <_>
          <internalNodes>
            0 -1 167 -3.4241536632180214e-03</internalNodes>
          <leafValues>
            3.9459457993507385e-01 -2.9411765933036804e-01</leafValues></_>
        <_>
          <internalNodes>
            0 -1 105 -2.2070843260735273e-03</internalNodes>
          <leafValues>
            5.0294864177703857e-01 -1.8327657878398895e-01</leafValues></_>
        <_>
          <internalNodes>
            0 -1 132 -6.7535098642110825e-03</internalNodes>
          <leafValues>
            5.1719534397125244e-01 -1.9453854858875275e-01</leafValues></_>
        <_>
          <internalNodes>
            0 -1 231 -3.2692241802578792e-05</internalNodes>
          <leafValues>
            2.4778741598129272e-01 -3.4791776537895203e-01</leafValues></_>
        <_>
          <internalNodes>
            0 -1 99 -4.7107427963055670e-04</internalNodes>
          <leafValues>
            5.3550672531127930e-01 -1.3551512360572815e-01</leafValues></_>
        <_>
          <internalNodes>
            0 -1 203 -4.5008171582594514e-04</internalNodes>
          <leafValues>
            4.7482508420944214e-01 -1.9917316734790802e-01</leafValues></_>
        <_>
          <internalNodes>
            0 -1 13 8.4734380245208740e-02</internalNodes>
          <leafValues>
            -6.2305219471454620e-02 7.2369265556335449e-01</leafValues></_>
        <_>
          <internalNodes>
            0 -1 28 -2.6483383029699326e-02</internalNodes>
          <leafValues>
            2.2859616577625275e-01 -4.5110628008842468e-01</leafValues></_>
        <_>
          <internalNodes>
            0 -1 195 -2.7784116100519896e-03</internalNodes>
          <leafValues>
            4.5595818758010864e-01 -2.1680131554603577e-01</leafValues></_>
        <_>
          <internalNodes>
            0 -1 29 4.4262030860409141e-04</internalNodes>
          <leafValues>
            1.6741828620433807e-01 -7.3116046190261841e-01</leafValues></_>
        <_>
          <internalNodes>
            0 -1 112 8.9111499255523086e-04</internalNodes>
          <leafValues>
            -1.7649586498737335e-01 7.7732819318771362e-01</leafValues></_>
        <_>
          <internalNodes>
            0 -1 121 -2.7603348717093468e-03</internalNodes>
          <leafValues>
            7.5342351198196411e-01 -8.4933586418628693e-02</leafValues></_>
        <_>
          <internalNodes>
            0 -1 157 -1.1589438654482365e-03</internalNodes>
          <leafValues>
            4.0035924315452576e-01 -2.0633286237716675e-01</leafValues></_>
        <_>
          <internalNodes>
            0 -1 12 1.5175591688603163e-03</internalNodes>
          <leafValues>
            1.3606368005275726e-01 -7.2341042757034302e-01</leafValues></_>
        <_>
          <internalNodes>
            0 -1 177 -8.8034692453220487e-04</internalNodes>
          <leafValues>
            3.8061913847923279e-01 -2.4629622697830200e-01</leafValues></_>
        <_>
          <internalNodes>
            0 -1 152 -2.5722872465848923e-02</internalNodes>
          <leafValues>
            4.3208491802215576e-01 -1.9342723488807678e-01</leafValues></_>
        <_>
          <internalNodes>
            0 -1 160 4.2652446427382529e-04</internalNodes>
          <leafValues>
            1.4965242147445679e-01 -6.0904431343078613e-01</leafValues></_>
        <_>
          <internalNodes>
            0 -1 190 -6.7958980798721313e-04</internalNodes>
          <leafValues>
            4.2687562108039856e-01 -2.3244905471801758e-01</leafValues></_></weakClassifiers></_>
    <!-- stage 11 -->
    <_>
      <maxWeakCount>15</maxWeakCount>
      <stageThreshold>-8.2170581817626953e-01</stageThreshold>
      <weakClassifiers>
        <_>
          <internalNodes>
            0 -1 74 -9.4032064080238342e-03</internalNodes>
          <leafValues>
            6.4444446563720703e-01 -2.2108843922615051e-01</leafValues></_>
        <_>
          <internalNodes>
            0 -1 90 1.3681514188647270e-02</internalNodes>
          <leafValues>
            -1.1411859840154648e-01 6.6880679130554199e-01</leafValues></_>
        <_>
          <internalNodes>
            0 -1 242 -6.8704859586432576e-05</internalNodes>
          <leafValues>
            -4.8083013296127319e-01 1.8824377655982971e-01</leafValues></_>
        <_>
          <internalNodes>
            0 -1 81 3.8455252069979906e-04</internalNodes>
          <leafValues>
            1.2546660006046295e-01 -6.0293906927108765e-01</leafValues></_>
        <_>
          <internalNodes>
            0 -1 32 -3.5839634947478771e-03</internalNodes>
          <leafValues>
            -8.1637811660766602e-01 9.3064643442630768e-02</leafValues></_>
        <_>
          <internalNodes>
            0 -1 63 -1.0188750922679901e-02</internalNodes>
          <leafValues>
            4.3683609366416931e-01 -1.7914670705795288e-01</leafValues></_>
        <_>
          <internalNodes>
            0 -1 196 -1.7718962626531720e-03</internalNodes>
          <leafValues>
            5.2703684568405151e-01 -1.7059288918972015e-01</leafValues></_>
        <_>
          <internalNodes>
            0 -1 9 1.9555620383471251e-03</internalNodes>
          <leafValues>
            1.2280688434839249e-01 -8.0846369266510010e-01</leafValues></_>
        <_>
          <internalNodes>
            0 -1 210 6.0403335373848677e-04</internalNodes>
          <leafValues>
            -2.4824991822242737e-01 4.0292036533355713e-01</leafValues></_>
        <_>
          <internalNodes>
            0 -1 33 -1.1814365163445473e-02</internalNodes>
          <leafValues>
            4.0840783715248108e-01 -1.9796022772789001e-01</leafValues></_>
        <_>
          <internalNodes>
            0 -1 64 -2.1580912172794342e-02</internalNodes>
          <leafValues>
            8.8353586196899414e-01 -1.1475761234760284e-01</leafValues></_>
        <_>
          <internalNodes>
            0 -1 89 -3.1868293881416321e-02</internalNodes>
          <leafValues>
            5.4176992177963257e-01 -1.4619098603725433e-01</leafValues></_>
        <_>
          <internalNodes>
            0 -1 226 -1.0402020998299122e-03</internalNodes>
          <leafValues>
            -8.7145251035690308e-01 1.0989633947610855e-01</leafValues></_>
        <_>
          <internalNodes>
            0 -1 59 -1.1479775421321392e-03</internalNodes>
          <leafValues>
            3.7601488828659058e-01 -2.4459876120090485e-01</leafValues></_>
        <_>
          <internalNodes>
            0 -1 194 -2.4408069439232349e-03</internalNodes>
          <leafValues>
            5.7102286815643311e-01 -1.5369945764541626e-01</leafValues></_></weakClassifiers></_>
    <!-- stage 12 -->
    <_>
      <maxWeakCount>16</maxWeakCount>
      <stageThreshold>-7.5837492942810059e-01</stageThreshold>
      <weakClassifiers>
        <_>
          <internalNodes>
            0 -1 191 5.8356216177344322e-03</internalNodes>
          <leafValues>
            -2.4567474424839020e-01 6.9999998807907104e-01</leafValues></_>
        <_>
          <internalNodes>
            0 -1 173 -8.5148066282272339e-03</internalNodes>
          <leafValues>
            6.0678696632385254e-01 -1.4664523303508759e-01</leafValues></_>
        <_>
          <internalNodes>
            0 -1 161 4.1096529457718134e-05</internalNodes>
          <leafValues>
            -4.7053876519203186e-01 1.7251408100128174e-01</leafValues></_>
        <_>
          <internalNodes>
            0 -1 10 -1.5985044883564115e-03</internalNodes>
          <leafValues>
            -5.2400815486907959e-01 1.3881294429302216e-01</leafValues></_>
        <_>
          <internalNodes>
            0 -1 60 -7.6012534555047750e-04</internalNodes>
          <leafValues>
            6.4069426059722900e-01 -1.2538632750511169e-01</leafValues></_>
        <_>
          <internalNodes>
            0 -1 189 1.2011912651360035e-02</internalNodes>
          <leafValues>
            -1.3262578845024109e-01 6.7896640300750732e-01</leafValues></_>
        <_>
          <internalNodes>
            0 -1 76 1.8442326691001654e-03</internalNodes>
          <leafValues>
            -1.6003076732158661e-01 5.2639764547348022e-01</leafValues></_>
        <_>
          <internalNodes>
            0 -1 85 -1.1186640476807952e-03</internalNodes>
          <leafValues>
            4.4850912690162659e-01 -1.5532633662223816e-01</leafValues></_>
        <_>
          <internalNodes>
            0 -1 144 2.0231539383530617e-03</internalNodes>
          <leafValues>
            -1.5582986176013947e-01 5.2994799613952637e-01</leafValues></_>
        <_>
          <internalNodes>
            0 -1 170 -7.7799959108233452e-03</internalNodes>
          <leafValues>
            4.1585764288902283e-01 -1.9785140454769135e-01</leafValues></_>
        <_>
          <internalNodes>
            0 -1 168 1.4723247289657593e-01</internalNodes>
          <leafValues>
            -1.8167376518249512e-01 5.0369977951049805e-01</leafValues></_>
        <_>
          <internalNodes>
            0 -1 91 -1.3009654358029366e-03</internalNodes>
          <leafValues>
            5.7973158359527588e-01 -1.3064146041870117e-01</leafValues></_>
        <_>
          <internalNodes>
            0 -1 93 2.7438271790742874e-03</internalNodes>
          <leafValues>
            -1.2100111693143845e-01 6.5728139877319336e-01</leafValues></_>
        <_>
          <internalNodes>
            0 -1 68 2.4816417135298252e-04</internalNodes>
          <leafValues>
            1.4008340239524841e-01 -7.2213703393936157e-01</leafValues></_>
        <_>
          <internalNodes>
            0 -1 209 1.1551304487511516e-03</internalNodes>
          <leafValues>
            -1.7283898591995239e-01 4.9362832307815552e-01</leafValues></_>
        <_>
          <internalNodes>
            0 -1 228 -4.5904042199254036e-03</internalNodes>
          <leafValues>
            -6.9982576370239258e-01 1.5544620156288147e-01</leafValues></_></weakClassifiers></_>
    <!-- stage 13 -->
    <_>
      <maxWeakCount>14</maxWeakCount>
      <stageThreshold>-8.3793115615844727e-01</stageThreshold>
      <weakClassifiers>
        <_>
          <internalNodes>
            0 -1 176 -1.0979528306052089e-03</internalNodes>
          <leafValues>
            5.2845525741577148e-01 -2.4684683978557587e-01</leafValues></_>
        <_>
          <internalNodes>
            0 -1 129 -3.6519068089546636e-05</internalNodes>
          <leafValues>
            2.6130306720733643e-01 -2.8683137893676758e-01</leafValues></_>
        <_>
          <internalNodes>
            0 -1 36 -2.5866132229566574e-02</internalNodes>
          <leafValues>
            5.4938352108001709e-01 -1.7885509133338928e-01</leafValues></_>
        <_>
          <internalNodes>
            0 -1 178 3.4524130751378834e-04</internalNodes>
          <leafValues>
            -2.7424812316894531e-01 2.8533393144607544e-01</leafValues></_>
        <_>
          <internalNodes>
            0 -1 17 6.6083654761314392e-02</internalNodes>
          <leafValues>
            1.1496576666831970e-01 -7.5462585687637329e-01</leafValues></_>
        <_>
          <internalNodes>
            0 -1 128 8.9724210556596518e-04</internalNodes>
          <leafValues>
            -1.4059415459632874e-01 6.6026848554611206e-01</leafValues></_>
        <_>
          <internalNodes>
            0 -1 79 -7.4120878707617521e-04</internalNodes>
          <leafValues>
            3.8924601674079895e-01 -2.0944789052009583e-01</leafValues></_>
        <_>
          <internalNodes>
            0 -1 6 -1.0013559833168983e-02</internalNodes>
          <leafValues>
            -9.0161311626434326e-01 7.3862120509147644e-02</leafValues></_>
        <_>
          <internalNodes>
            0 -1 159 -1.1586846085265279e-03</internalNodes>
          <leafValues>
            2.7472248673439026e-01 -2.6723477244377136e-01</leafValues></_>
        <_>
          <internalNodes>
            0 -1 117 4.7064642421901226e-04</internalNodes>
          <leafValues>
            1.8481324613094330e-01 -5.4205846786499023e-01</leafValues></_>
        <_>
          <internalNodes>
            0 -1 150 -1.8521193414926529e-02</internalNodes>
          <leafValues>
            4.5578572154045105e-01 -1.9812844693660736e-01</leafValues></_>
        <_>
          <internalNodes>
            0 -1 230 1.4214998809620738e-03</internalNodes>
          <leafValues>
            1.9200962781906128e-01 -4.6200862526893616e-01</leafValues></_>
        <_>
          <internalNodes>
            0 -1 218 2.2533144801855087e-03</internalNodes>
          <leafValues>
            -1.7223592102527618e-01 5.0635868310928345e-01</leafValues></_>
        <_>
          <internalNodes>
            0 -1 125 -5.5393553338944912e-03</internalNodes>
          <leafValues>
            3.9322197437286377e-01 -2.0446147024631500e-01</leafValues></_></weakClassifiers></_>
    <!-- stage 14 -->
    <_>
      <maxWeakCount>16</maxWeakCount>
      <stageThreshold>-9.7900241613388062e-01</stageThreshold>
      <weakClassifiers>
        <_>
          <internalNodes>
            0 -1 58 -2.4469599593430758e-03</internalNodes>
          <leafValues>
            3.3684211969375610e-01 -2.7868852019309998e-01</leafValues></_>
        <_>
          <internalNodes>
            0 -1 145 -9.0968348085880280e-03</internalNodes>
          <leafValues>
            3.1023427844047546e-01 -2.3932433128356934e-01</leafValues></_>
        <_>
          <internalNodes>
            0 -1 8 6.6510110627859831e-04</internalNodes>
          <leafValues>
            1.4324370026588440e-01 -5.9165269136428833e-01</leafValues></_>
        <_>
          <internalNodes>
            0 -1 146 -3.7782588042318821e-03</internalNodes>
          <leafValues>
            4.4999310374259949e-01 -1.4805394411087036e-01</leafValues></_>
        <_>
          <internalNodes>
            0 -1 216 -4.2347091948613524e-04</internalNodes>
          <leafValues>
            3.4978520870208740e-01 -2.0981234312057495e-01</leafValues></_>
        <_>
          <internalNodes>
            0 -1 60 -3.2427132828161120e-04</internalNodes>
          <leafValues>
            3.7124112248420715e-01 -2.3871226608753204e-01</leafValues></_>
        <_>
          <internalNodes>
            0 -1 30 3.5747443325817585e-04</internalNodes>
          <leafValues>
            -2.7424159646034241e-01 2.8526225686073303e-01</leafValues></_>
        <_>
          <internalNodes>
            0 -1 19 -4.1230693459510803e-03</internalNodes>
          <leafValues>
            -7.6423960924148560e-01 9.5429435372352600e-02</leafValues></_>
        <_>
          <internalNodes>
            0 -1 156 2.4063251912593842e-03</internalNodes>
          <leafValues>
            -1.3894659280776978e-01 6.8014353513717651e-01</leafValues></_>
        <_>
          <internalNodes>
            0 -1 142 1.3969160499982536e-04</internalNodes>
          <leafValues>
            1.7057086527347565e-01 -4.9893122911453247e-01</leafValues></_>
        <_>
          <internalNodes>
            0 -1 77 1.5792112099006772e-03</internalNodes>
          <leafValues>
            -1.9080175459384918e-01 4.5221850275993347e-01</leafValues></_>
        <_>
          <internalNodes>
            0 -1 101 -3.2026986591517925e-03</internalNodes>
          <leafValues>
            3.3423984050750732e-01 -2.4810463190078735e-01</leafValues></_>
        <_>
          <internalNodes>
            0 -1 53 -6.8653285503387451e-02</internalNodes>
          <leafValues>
            5.4964250326156616e-01 -1.5668252110481262e-01</leafValues></_>
        <_>
          <internalNodes>
            0 -1 7 1.0697263479232788e-01</internalNodes>
          <leafValues>
            -1.1142148822546005e-01 6.4953893423080444e-01</leafValues></_>
        <_>
          <internalNodes>
            0 -1 187 1.1008618399500847e-02</internalNodes>
          <leafValues>
            -2.4552461504936218e-01 3.3711183071136475e-01</leafValues></_>
        <_>
          <internalNodes>
            0 -1 27 -9.0152814984321594e-02</internalNodes>
          <leafValues>
            4.3081676959991455e-01 -2.1845088899135590e-01</leafValues></_></weakClassifiers></_>
    <!-- stage 15 -->
    <_>
      <maxWeakCount>18</maxWeakCount>
      <stageThreshold>-1.0145355463027954e+00</stageThreshold>
      <weakClassifiers>
        <_>
          <internalNodes>
            0 -1 147 -4.2410288006067276e-03</internalNodes>
          <leafValues>
            5.3703701496124268e-01 -2.2807016968727112e-01</leafValues></_>
        <_>
          <internalNodes>
            0 -1 250 1.7711882537696511e-04</internalNodes>
          <leafValues>
            1.5846344828605652e-01 -4.7425544261932373e-01</leafValues></_>
        <_>
          <internalNodes>
            0 -1 80 -5.0109734729630873e-05</internalNodes>
          <leafValues>
            1.9122375547885895e-01 -3.4954574704170227e-01</leafValues></_>
        <_>
          <internalNodes>
            0 -1 249 2.1795471184304915e-05</internalNodes>
          <leafValues>
            -2.9947811365127563e-01 2.8394490480422974e-01</leafValues></_>
        <_>
          <internalNodes>
            0 -1 78 -9.6119316294789314e-03</internalNodes>
          <leafValues>
            4.0730193257331848e-01 -2.1927917003631592e-01</leafValues></_>
        <_>
          <internalNodes>
            0 -1 185 8.2082133740186691e-03</internalNodes>
          <leafValues>
            -9.2342697083950043e-02 5.8415275812149048e-01</leafValues></_>
        <_>
          <internalNodes>
            0 -1 164 -1.5134187415242195e-03</internalNodes>
          <leafValues>
            5.4746687412261963e-01 -1.3790823519229889e-01</leafValues></_>
        <_>
          <internalNodes>
            0 -1 229 -9.8606245592236519e-04</internalNodes>
          <leafValues>
            -4.4476598501205444e-01 1.6158142685890198e-01</leafValues></_>
        <_>
          <internalNodes>
            0 -1 211 -7.0372340269386768e-04</internalNodes>
          <leafValues>
            4.8576766252517700e-01 -1.4868032932281494e-01</leafValues></_>
        <_>
          <internalNodes>
            0 -1 113 -5.6909618433564901e-04</internalNodes>
          <leafValues>
            4.5884004235267639e-01 -1.6283392906188965e-01</leafValues></_>
        <_>
          <internalNodes>
            0 -1 11 2.0489096641540527e-03</internalNodes>
          <leafValues>
            1.8209965527057648e-01 -5.3342908620834351e-01</leafValues></_>
        <_>
          <internalNodes>
            0 -1 52 1.6416777725680731e-05</internalNodes>
          <leafValues>
            -3.2035464048385620e-01 2.6050129532814026e-01</leafValues></_>
        <_>
          <internalNodes>
            0 -1 1 -1.3981689698994160e-03</internalNodes>
          <leafValues>
            -4.7501847147941589e-01 1.8936923146247864e-01</leafValues></_>
        <_>
          <internalNodes>
            0 -1 70 -4.0379137499257922e-04</internalNodes>
          <leafValues>
            3.3987167477607727e-01 -2.2210538387298584e-01</leafValues></_>
        <_>
          <internalNodes>
            0 -1 98 8.8346451520919800e-03</internalNodes>
          <leafValues>
            -1.3630121946334839e-01 5.3964370489120483e-01</leafValues></_>
        <_>
          <internalNodes>
            0 -1 114 -2.7083228342235088e-03</internalNodes>
          <leafValues>
            2.0188026130199432e-01 -3.6559230089187622e-01</leafValues></_>
        <_>
          <internalNodes>
            0 -1 162 -3.2489674631506205e-03</internalNodes>
          <leafValues>
            6.2757772207260132e-01 -1.5141336619853973e-01</leafValues></_>
        <_>
          <internalNodes>
            0 -1 122 -2.7383216656744480e-03</internalNodes>
          <leafValues>
            4.8940396308898926e-01 -1.3480438292026520e-01</leafValues></_></weakClassifiers></_>
    <!-- stage 16 -->
    <_>
      <maxWeakCount>19</maxWeakCount>
      <stageThreshold>-8.5499960184097290e-01</stageThreshold>
      <weakClassifiers>
        <_>
          <internalNodes>
            0 -1 171 8.2099393010139465e-02</internalNodes>
          <leafValues>
            -2.4731183052062988e-01 5.5000001192092896e-01</leafValues></_>
        <_>
          <internalNodes>
            0 -1 104 -5.9449803084135056e-03</internalNodes>
          <leafValues>
            5.1655423641204834e-01 -1.7489008605480194e-01</leafValues></_>
        <_>
          <internalNodes>
            0 -1 208 -4.6943975612521172e-03</internalNodes>
          <leafValues>
            -6.6330480575561523e-01 1.0996659845113754e-01</leafValues></_>
        <_>
          <internalNodes>
            0 -1 141 -1.4572466025128961e-03</internalNodes>
          <leafValues>
            4.8731255531311035e-01 -1.6080525517463684e-01</leafValues></_>
        <_>
          <internalNodes>
            0 -1 244 1.7235047416761518e-03</internalNodes>
          <leafValues>
            1.9543594121932983e-01 -4.7872212529182434e-01</leafValues></_>
        <_>
          <internalNodes>
            0 -1 15 -4.5112194493412971e-03</internalNodes>
          <leafValues>
            1.3947872817516327e-01 -4.3288946151733398e-01</leafValues></_>
        <_>
          <internalNodes>
            0 -1 25 -9.5421023666858673e-02</internalNodes>
          <leafValues>
            -6.3115471601486206e-01 1.6186194121837616e-01</leafValues></_>
        <_>
          <internalNodes>
            0 -1 72 -2.6090601459145546e-02</internalNodes>
          <leafValues>
            3.1835770606994629e-01 -2.4913427233695984e-01</leafValues></_>
        <_>
          <internalNodes>
            0 -1 143 -2.5956635363399982e-04</internalNodes>
          <leafValues>
            -5.1851499080657959e-01 1.4672482013702393e-01</leafValues></_>
        <_>
          <internalNodes>
            0 -1 20 -3.7977417377987877e-05</internalNodes>
          <leafValues>
            2.1504737436771393e-01 -3.4814071655273438e-01</leafValues></_>
        <_>
          <internalNodes>
            0 -1 220 4.9679330550134182e-04</internalNodes>
          <leafValues>
            -3.8743278384208679e-01 1.9795574247837067e-01</leafValues></_>
        <_>
          <internalNodes>
            0 -1 191 -7.1955099701881409e-04</internalNodes>
          <leafValues>
            3.2702165842056274e-01 -2.2715342044830322e-01</leafValues></_>
        <_>
          <internalNodes>
            0 -1 37 -4.8909753561019897e-02</internalNodes>
          <leafValues>
            4.7238403558731079e-01 -1.6160032153129578e-01</leafValues></_>
        <_>
          <internalNodes>
            0 -1 5 -7.0939855650067329e-03</internalNodes>
          <leafValues>
            -7.1718877553939819e-01 1.3073706626892090e-01</leafValues></_>
        <_>
          <internalNodes>
            0 -1 61 1.5984447672963142e-03</internalNodes>
          <leafValues>
            -2.2105160355567932e-01 3.5456538200378418e-01</leafValues></_>
        <_>
          <internalNodes>
            0 -1 43 4.8255966976284981e-03</internalNodes>
          <leafValues>
            2.2691935300827026e-01 -3.4107941389083862e-01</leafValues></_>
        <_>
          <internalNodes>
            0 -1 135 -5.5245393887162209e-03</internalNodes>
          <leafValues>
            5.2018016576766968e-01 -1.4486500620841980e-01</leafValues></_>
        <_>
          <internalNodes>
            0 -1 149 -4.0115162730216980e-02</internalNodes>
          <leafValues>
            4.7421398758888245e-01 -1.7009490728378296e-01</leafValues></_>
        <_>
          <internalNodes>
            0 -1 55 -1.1374019086360931e-01</internalNodes>
          <leafValues>
            3.3964100480079651e-01 -2.6160725951194763e-01</leafValues></_></weakClassifiers></_>
    <!-- stage 17 -->
    <_>
      <maxWeakCount>15</maxWeakCount>
      <stageThreshold>-8.3802300691604614e-01</stageThreshold>
      <weakClassifiers>
        <_>
          <internalNodes>
            0 -1 212 -1.1964112054556608e-03</internalNodes>
          <leafValues>
            6.3414633274078369e-01 -2.0805369317531586e-01</leafValues></_>
        <_>
          <internalNodes>
            0 -1 217 2.0004515536129475e-03</internalNodes>
          <leafValues>
            -1.4134557545185089e-01 4.7769463062286377e-01</leafValues></_>
        <_>
          <internalNodes>
            0 -1 120 -4.5739822089672089e-03</internalNodes>
          <leafValues>
            3.4795045852661133e-01 -1.9799359142780304e-01</leafValues></_>
        <_>
          <internalNodes>
            0 -1 54 -7.2275169193744659e-02</internalNodes>
          <leafValues>
            4.5674052834510803e-01 -1.6327898204326630e-01</leafValues></_>
        <_>
          <internalNodes>
            0 -1 221 -3.9746672846376896e-03</internalNodes>
          <leafValues>
            -7.5176668167114258e-01 1.1572632938623428e-01</leafValues></_>
        <_>
          <internalNodes>
            0 -1 181 -2.1983962506055832e-04</internalNodes>
          <leafValues>
            -4.7039780020713806e-01 1.6749064624309540e-01</leafValues></_>
        <_>
          <internalNodes>
            0 -1 83 -1.0693166404962540e-01</internalNodes>
          <leafValues>
            -7.0536082983016968e-01 9.5511555671691895e-02</leafValues></_>
        <_>
          <internalNodes>
            0 -1 35 -2.6629136409610510e-03</internalNodes>
          <leafValues>
            4.5002874732017517e-01 -1.6430063545703888e-01</leafValues></_>
        <_>
          <internalNodes>
            0 -1 202 -6.5723829902708530e-04</internalNodes>
          <leafValues>
            5.1609134674072266e-01 -1.4572991430759430e-01</leafValues></_>
        <_>
          <internalNodes>
            0 -1 247 3.3270556014031172e-04</internalNodes>
          <leafValues>
            1.6340871155261993e-01 -4.8525923490524292e-01</leafValues></_>
        <_>
          <internalNodes>
            0 -1 82 -1.1581488070078194e-04</internalNodes>
          <leafValues>
            1.6207101941108704e-01 -4.2631387710571289e-01</leafValues></_>
        <_>
          <internalNodes>
            0 -1 124 -6.2473485013470054e-04</internalNodes>
          <leafValues>
            3.5791611671447754e-01 -2.1063640713691711e-01</leafValues></_>
        <_>
          <internalNodes>
            0 -1 46 -3.2407999970018864e-03</internalNodes>
          <leafValues>
            4.4764670729637146e-01 -2.1228927373886108e-01</leafValues></_>
        <_>
          <internalNodes>
            0 -1 219 -1.0096961632370949e-02</internalNodes>
          <leafValues>
            2.3646682500839233e-01 -3.3065307140350342e-01</leafValues></_>
        <_>
          <internalNodes>
            0 -1 73 -5.5788754252716899e-04</internalNodes>
          <leafValues>
            3.0650666356086731e-01 -3.0544230341911316e-01</leafValues></_></weakClassifiers></_>
    <!-- stage 18 -->
    <_>
      <maxWeakCount>13</maxWeakCount>
      <stageThreshold>-8.0581223964691162e-01</stageThreshold>
      <weakClassifiers>
        <_>
          <internalNodes>
            0 -1 26 1.0884100338444114e-03</internalNodes>
          <leafValues>
            1.2718205153942108e-01 -4.4404330849647522e-01</leafValues></_>
        <_>
          <internalNodes>
            0 -1 251 -3.6165856290608644e-03</internalNodes>
          <leafValues>
            -5.6070530414581299e-01 1.2110833823680878e-01</leafValues></_>
        <_>
          <internalNodes>
            0 -1 239 9.6600726246833801e-03</internalNodes>
          <leafValues>
            1.0817944258451462e-01 -8.8369274139404297e-01</leafValues></_>
        <_>
          <internalNodes>
            0 -1 148 -1.0007981956005096e-01</internalNodes>
          <leafValues>
            6.1769104003906250e-01 -1.5194308757781982e-01</leafValues></_>
        <_>
          <internalNodes>
            0 -1 66 -3.1608846038579941e-02</internalNodes>
          <leafValues>
            -4.5822873711585999e-01 1.8886768817901611e-01</leafValues></_>
        <_>
          <internalNodes>
            0 -1 44 1.1469367018435150e-04</internalNodes>
          <leafValues>
            -2.9924038052558899e-01 2.5858327746391296e-01</leafValues></_>
        <_>
          <internalNodes>
            0 -1 131 9.6930414438247681e-03</internalNodes>
          <leafValues>
            -1.5052111446857452e-01 4.4316720962524414e-01</leafValues></_>
        <_>
          <internalNodes>
            0 -1 192 -8.6045224452391267e-04</internalNodes>
          <leafValues>
            4.9750444293022156e-01 -1.6167956590652466e-01</leafValues></_>
        <_>
          <internalNodes>
            0 -1 193 3.6959210410714149e-03</internalNodes>
          <leafValues>
            -1.9132328033447266e-01 4.1487500071525574e-01</leafValues></_>
        <_>
          <internalNodes>
            0 -1 96 1.3868758454918861e-02</internalNodes>
          <leafValues>
            -1.3458457589149475e-01 6.5253424644470215e-01</leafValues></_>
        <_>
          <internalNodes>
            0 -1 41 -3.3793687180150300e-05</internalNodes>
          <leafValues>
            2.8686505556106567e-01 -3.1636029481887817e-01</leafValues></_>
        <_>
          <internalNodes>
            0 -1 204 -2.9275837005116045e-04</internalNodes>
          <leafValues>
            5.4364341497421265e-01 -1.4408792555332184e-01</leafValues></_>
        <_>
          <internalNodes>
            0 -1 103 3.4280209802091122e-03</internalNodes>
          <leafValues>
            2.1702560782432556e-01 -4.0342232584953308e-01</leafValues></_></weakClassifiers></_>
    <!-- stage 19 -->
    <_>
      <maxWeakCount>16</maxWeakCount>
      <stageThreshold>-9.0926450490951538e-01</stageThreshold>
      <weakClassifiers>
        <_>
          <internalNodes>
            0 -1 97 -1.1652113171294332e-03</internalNodes>
          <leafValues>
            2.4344569444656372e-01 -3.3333334326744080e-01</leafValues></_>
        <_>
          <internalNodes>
            0 -1 75 -8.6325575830414891e-04</internalNodes>
          <leafValues>
            5.9200274944305420e-01 -1.2657929956912994e-01</leafValues></_>
        <_>
          <internalNodes>
            0 -1 237 -8.9594926685094833e-03</internalNodes>
          <leafValues>
            -5.4008466005325317e-01 1.2519644200801849e-01</leafValues></_>
        <_>
          <internalNodes>
            0 -1 201 -8.3195529878139496e-03</internalNodes>
          <leafValues>
            6.3167470693588257e-01 -8.3731286227703094e-02</leafValues></_>
        <_>
          <internalNodes>
            0 -1 232 -1.6072714061010629e-04</internalNodes>
          <leafValues>
            2.7312627434730530e-01 -3.0792573094367981e-01</leafValues></_>
        <_>
          <internalNodes>
            0 -1 57 -2.6031925808638334e-03</internalNodes>
          <leafValues>
            2.9354220628738403e-01 -2.6180100440979004e-01</leafValues></_>
        <_>
          <internalNodes>
            0 -1 3 4.7467131167650223e-02</internalNodes>
          <leafValues>
            1.7232881486415863e-01 -5.3331816196441650e-01</leafValues></_>
        <_>
          <internalNodes>
            0 -1 0 -3.4428690560162067e-03</internalNodes>
          <leafValues>
            -6.4752501249313354e-01 1.0036363452672958e-01</leafValues></_>
        <_>
          <internalNodes>
            0 -1 130 -1.2580975890159607e-03</internalNodes>
          <leafValues>
            7.9724466800689697e-01 -1.0419987142086029e-01</leafValues></_>
        <_>
          <internalNodes>
            0 -1 169 -3.7585099926218390e-04</internalNodes>
          <leafValues>
            4.9158200621604919e-01 -1.3996784389019012e-01</leafValues></_>
        <_>
          <internalNodes>
            0 -1 235 2.0542368292808533e-03</internalNodes>
          <leafValues>
            8.3756268024444580e-02 -8.6162626743316650e-01</leafValues></_>
        <_>
          <internalNodes>
            0 -1 246 -5.0496691837906837e-03</internalNodes>
          <leafValues>
            -9.3258279561996460e-01 7.5469277799129486e-02</leafValues></_>
        <_>
          <internalNodes>
            0 -1 163 -7.1172323077917099e-04</internalNodes>
          <leafValues>
            5.9467464685440063e-01 -1.6746202111244202e-01</leafValues></_>
        <_>
          <internalNodes>
            0 -1 48 -4.6764789149165154e-03</internalNodes>
          <leafValues>
            4.1767007112503052e-01 -1.9298809766769409e-01</leafValues></_>
        <_>
          <internalNodes>
            0 -1 24 2.2992249578237534e-02</internalNodes>
          <leafValues>
            1.4670769870281219e-01 -6.2297934293746948e-01</leafValues></_>
        <_>
          <internalNodes>
            0 -1 99 -3.5023933742195368e-04</internalNodes>
          <leafValues>
            4.2167365550994873e-01 -2.1731542050838470e-01</leafValues></_></weakClassifiers></_></stages>
  <features>
    <_>
      <rects>
        <_>
          0 0 2 16 -1.</_>
        <_>
          0 0 1 8 2.</_>
        <_>
          1 8 1 8 2.</_></rects>
      <tilted>0</tilted></_>
    <_>
      <rects>
        <_>
          0 0 3 10 -1.</_>
        <_>
          1 0 1 10 3.</_></rects>
      <tilted>0</tilted></_>
    <_>
      <rects>
        <_>
          0 0 4 21 -1.</_>
        <_>
          0 7 4 7 3.</_></rects>
      <tilted>0</tilted></_>
    <_>
      <rects>
        <_>
          0 0 22 3 -1.</_>
        <_>
          11 0 11 3 2.</_></rects>
      <tilted>0</tilted></_>
    <_>
      <rects>
        <_>
          0 0 16 3 -1.</_>
        <_>
          0 1 16 1 3.</_></rects>
      <tilted>0</tilted></_>
    <_>
      <rects>
        <_>
          0 1 6 4 -1.</_>
        <_>
          3 1 3 4 2.</_></rects>
      <tilted>0</tilted></_>
    <_>
      <rects>
        <_>
          0 4 1 9 -1.</_>
        <_>
          0 7 1 3 3.</_></rects>
      <tilted>0</tilted></_>
    <_>
      <rects>
        <_>
          0 4 18 17 -1.</_>
        <_>
          6 4 6 17 3.</_></rects>
      <tilted>0</tilted></_>
    <_>
      <rects>
        <_>
          0 6 2 4 -1.</_>
        <_>
          0 6 1 2 2.</_>
        <_>
          1 8 1 2 2.</_></rects>
      <tilted>0</tilted></_>
    <_>
      <rects>
        <_>
          0 6 2 6 -1.</_>
        <_>
          1 6 1 6 2.</_></rects>
      <tilted>0</tilted></_>
    <_>
      <rects>
        <_>
          0 6 3 13 -1.</_>
        <_>
          1 6 1 13 3.</_></rects>
      <tilted>0</tilted></_>
    <_>
      <rects>
        <_>
          0 8 2 16 -1.</_>
        <_>
          0 8 1 8 2.</_>
        <_>
          1 16 1 8 2.</_></rects>
      <tilted>0</tilted></_>
    <_>
      <rects>
        <_>
          0 10 2 5 -1.</_>
        <_>
          1 10 1 5 2.</_></rects>
      <tilted>0</tilted></_>
    <_>
      <rects>
        <_>
          0 12 24 3 -1.</_>
        <_>
          8 12 8 3 3.</_></rects>
      <tilted>0</tilted></_>
    <_>
      <rects>
        <_>
          0 12 23 10 -1.</_>
        <_>
          0 17 23 5 2.</_></rects>
      <tilted>0</tilted></_>
    <_>
      <rects>
        <_>
          0 14 18 4 -1.</_>
        <_>
          9 14 9 4 2.</_></rects>
      <tilted>0</tilted></_>
    <_>
      <rects>
        <_>
          0 16 20 6 -1.</_>
        <_>
          0 18 20 2 3.</_></rects>
      <tilted>0</tilted></_>
    <_>
      <rects>
        <_>
          0 17 22 6 -1.</_>
        <_>
          0 20 22 3 2.</_></rects>
      <tilted>0</tilted></_>
    <_>
      <rects>
        <_>
          0 18 12 3 -1.</_>
        <_>
          6 18 6 3 2.</_></rects>
      <tilted>0</tilted></_>
    <_>
      <rects>
        <_>
          0 20 2 4 -1.</_>
        <_>
          0 22 2 2 2.</_></rects>
      <tilted>0</tilted></_>
    <_>
      <rects>
        <_>
          0 21 4 1 -1.</_>
        <_>
          2 21 2 1 2.</_></rects>
      <tilted>0</tilted></_>
    <_>
      <rects>
        <_>
          0 23 2 1 -1.</_>
        <_>
          1 23 1 1 2.</_></rects>
      <tilted>0</tilted></_>
    <_>
      <rects>
        <_>
          0 23 12 1 -1.</_>
        <_>
          6 23 6 1 2.</_></rects>
      <tilted>0</tilted></_>
    <_>
      <rects>
        <_>
          1 0 4 3 -1.</_>
        <_>
          3 0 2 3 2.</_></rects>
      <tilted>0</tilted></_>
    <_>
      <rects>
        <_>
          1 0 12 3 -1.</_>
        <_>
          5 0 4 3 3.</_></rects>
      <tilted>0</tilted></_>
    <_>
      <rects>
        <_>
          1 1 18 6 -1.</_>
        <_>
          10 1 9 6 2.</_></rects>
      <tilted>0</tilted></_>
    <_>
      <rects>
        <_>
          1 2 6 3 -1.</_>
        <_>
          3 2 2 3 3.</_></rects>
      <tilted>0</tilted></_>
    <_>
      <rects>
        <_>
          1 2 18 10 -1.</_>
        <_>
          7 2 6 10 3.</_></rects>
      <tilted>0</tilted></_>
    <_>
      <rects>
        <_>
          1 14 12 8 -1.</_>
        <_>
          7 14 6 8 2.</_></rects>
      <tilted>0</tilted></_>
    <_>
      <rects>
        <_>
          1 18 2 1 -1.</_>
        <_>
          2 18 1 1 2.</_></rects>
      <tilted>0</tilted></_>
    <_>
      <rects>
        <_>
          1 19 16 4 -1.</_>
        <_>
          1 19 8 2 2.</_>
        <_>
          9 21 8 2 2.</_></rects>
      <tilted>0</tilted></_>
    <_>
      <rects>
        <_>
          1 20 2 3 -1.</_>
        <_>
          2 20 1 3 2.</_></rects>
      <tilted>0</tilted></_>
    <_>
      <rects>
        <_>
          2 0 1 4 -1.</_>
        <_>
          2 2 1 2 2.</_></rects>
      <tilted>0</tilted></_>
    <_>
      <rects>
        <_>
          2 7 8 3 -1.</_>
        <_>
          6 7 4 3 2.</_></rects>
      <tilted>0</tilted></_>
    <_>
      <rects>
        <_>
          2 7 17 3 -1.</_>
        <_>
          2 8 17 1 3.</_></rects>
      <tilted>0</tilted></_>
    <_>
      <rects>
        <_>
          2 8 4 4 -1.</_>
        <_>
          2 8 2 2 2.</_>
        <_>
          4 10 2 2 2.</_></rects>
      <tilted>0</tilted></_>
    <_>
      <rects>
        <_>
          2 11 9 6 -1.</_>
        <_>
          5 11 3 6 3.</_></rects>
      <tilted>0</tilted></_>
    <_>
      <rects>
        <_>
          2 11 12 8 -1.</_>
        <_>
          6 11 4 8 3.</_></rects>
      <tilted>0</tilted></_>
    <_>
      <rects>
        <_>
          2 12 11 3 -1.</_>
        <_>
          2 13 11 1 3.</_></rects>
      <tilted>0</tilted></_>
    <_>
      <rects>
        <_>
          2 15 21 3 -1.</_>
        <_>
          9 15 7 3 3.</_></rects>
      <tilted>0</tilted></_>
    <_>
      <rects>
        <_>
          2 17 10 7 -1.</_>
        <_>
          7 17 5 7 2.</_></rects>
      <tilted>0</tilted></_>
    <_>
      <rects>
        <_>
          2 20 2 1 -1.</_>
        <_>
          3 20 1 1 2.</_></rects>
      <tilted>0</tilted></_>
    <_>
      <rects>
        <_>
          2 22 18 2 -1.</_>
        <_>
          2 23 18 1 2.</_></rects>
      <tilted>0</tilted></_>
    <_>
      <rects>
        <_>
          3 0 21 6 -1.</_>
        <_>
          3 2 21 2 3.</_></rects>
      <tilted>0</tilted></_>
    <_>
      <rects>
        <_>
          3 3 5 2 -1.</_>
        <_>
          3 4 5 1 2.</_></rects>
      <tilted>0</tilted></_>
    <_>
      <rects>
        <_>
          3 6 5 3 -1.</_>
        <_>
          3 7 5 1 3.</_></rects>
      <tilted>0</tilted></_>
    <_>
      <rects>
        <_>
          3 11 9 2 -1.</_>
        <_>
          3 12 9 1 2.</_></rects>
      <tilted>0</tilted></_>
    <_>
      <rects>
        <_>
          3 14 8 2 -1.</_>
        <_>
          7 14 4 2 2.</_></rects>
      <tilted>0</tilted></_>
    <_>
      <rects>
        <_>
          3 15 21 3 -1.</_>
        <_>
          3 16 21 1 3.</_></rects>
      <tilted>0</tilted></_>
    <_>
      <rects>
        <_>
          3 18 4 2 -1.</_>
        <_>
          5 18 2 2 2.</_></rects>
      <tilted>0</tilted></_>
    <_>
      <rects>
        <_>
          3 19 18 2 -1.</_>
        <_>
          9 19 6 2 3.</_></rects>
      <tilted>0</tilted></_>
    <_>
      <rects>
        <_>
          3 22 18 2 -1.</_>
        <_>
          3 23 18 1 2.</_></rects>
      <tilted>0</tilted></_>
    <_>
      <rects>
        <_>
          4 0 9 2 -1.</_>
        <_>
          4 1 9 1 2.</_></rects>
      <tilted>0</tilted></_>
    <_>
      <rects>
        <_>
          4 1 11 10 -1.</_>
        <_>
          4 6 11 5 2.</_></rects>
      <tilted>0</tilted></_>
    <_>
      <rects>
        <_>
          4 1 13 8 -1.</_>
        <_>
          4 5 13 4 2.</_></rects>
      <tilted>0</tilted></_>
    <_>
      <rects>
        <_>
          4 2 15 22 -1.</_>
        <_>
          9 2 5 22 3.</_></rects>
      <tilted>0</tilted></_>
    <_>
      <rects>
        <_>
          4 2 12 2 -1.</_>
        <_>
          4 3 12 1 2.</_></rects>
      <tilted>0</tilted></_>
    <_>
      <rects>
        <_>
          4 3 12 2 -1.</_>
        <_>
          4 3 6 1 2.</_>
        <_>
          10 4 6 1 2.</_></rects>
      <tilted>0</tilted></_>
    <_>
      <rects>
        <_>
          4 7 6 1 -1.</_>
        <_>
          6 7 2 1 3.</_></rects>
      <tilted>0</tilted></_>
    <_>
      <rects>
        <_>
          4 7 4 3 -1.</_>
        <_>
          4 8 4 1 3.</_></rects>
      <tilted>0</tilted></_>
    <_>
      <rects>
        <_>
          4 8 2 2 -1.</_>
        <_>
          4 8 1 1 2.</_>
        <_>
          5 9 1 1 2.</_></rects>
      <tilted>0</tilted></_>
    <_>
      <rects>
        <_>
          4 14 6 2 -1.</_>
        <_>
          6 14 2 2 3.</_></rects>
      <tilted>0</tilted></_>
    <_>
      <rects>
        <_>
          4 14 7 3 -1.</_>
        <_>
          4 15 7 1 3.</_></rects>
      <tilted>0</tilted></_>
    <_>
      <rects>
        <_>
          4 14 16 3 -1.</_>
        <_>
          4 15 16 1 3.</_></rects>
      <tilted>0</tilted></_>
    <_>
      <rects>
        <_>
          4 15 12 2 -1.</_>
        <_>
          4 16 12 1 2.</_></rects>
      <tilted>0</tilted></_>
    <_>
      <rects>
        <_>
          4 16 15 5 -1.</_>
        <_>
          9 16 5 5 3.</_></rects>
      <tilted>0</tilted></_>
    <_>
      <rects>
        <_>
          4 17 19 6 -1.</_>
        <_>
          4 20 19 3 2.</_></rects>
      <tilted>0</tilted></_>
    <_>
      <rects>
        <_>
          4 18 10 1 -1.</_>
        <_>
          9 18 5 1 2.</_></rects>
      <tilted>0</tilted></_>
    <_>
      <rects>
        <_>
          4 22 2 1 -1.</_>
        <_>
          5 22 1 1 2.</_></rects>
      <tilted>0</tilted></_>
    <_>
      <rects>
        <_>
          4 22 20 2 -1.</_>
        <_>
          4 23 20 1 2.</_></rects>
      <tilted>0</tilted></_>
    <_>
      <rects>
        <_>
          5 5 3 7 -1.</_>
        <_>
          6 5 1 7 3.</_></rects>
      <tilted>0</tilted></_>
    <_>
      <rects>
        <_>
          5 5 4 6 -1.</_>
        <_>
          7 5 2 6 2.</_></rects>
      <tilted>0</tilted></_>
    <_>
      <rects>
        <_>
          5 5 18 3 -1.</_>
        <_>
          11 5 6 3 3.</_></rects>
      <tilted>0</tilted></_>
    <_>
      <rects>
        <_>
          5 6 6 1 -1.</_>
        <_>
          7 6 2 1 3.</_></rects>
      <tilted>0</tilted></_>
    <_>
      <rects>
        <_>
          5 8 10 3 -1.</_>
        <_>
          5 9 10 1 3.</_></rects>
      <tilted>0</tilted></_>
    <_>
      <rects>
        <_>
          5 9 2 2 -1.</_>
        <_>
          5 9 1 1 2.</_>
        <_>
          6 10 1 1 2.</_></rects>
      <tilted>0</tilted></_>
    <_>
      <rects>
        <_>
          5 9 2 5 -1.</_>
        <_>
          6 9 1 5 2.</_></rects>
      <tilted>0</tilted></_>
    <_>
      <rects>
        <_>
          5 9 6 2 -1.</_>
        <_>
          5 9 3 1 2.</_>
        <_>
          8 10 3 1 2.</_></rects>
      <tilted>0</tilted></_>
    <_>
      <rects>
        <_>
          5 9 16 3 -1.</_>
        <_>
          5 10 16 1 3.</_></rects>
      <tilted>0</tilted></_>
    <_>
      <rects>
        <_>
          5 16 3 3 -1.</_>
        <_>
          5 17 3 1 3.</_></rects>
      <tilted>0</tilted></_>
    <_>
      <rects>
        <_>
          5 19 2 1 -1.</_>
        <_>
          6 19 1 1 2.</_></rects>
      <tilted>0</tilted></_>
    <_>
      <rects>
        <_>
          5 20 2 4 -1.</_>
        <_>
          6 20 1 4 2.</_></rects>
      <tilted>0</tilted></_>
    <_>
      <rects>
        <_>
          5 20 4 1 -1.</_>
        <_>
          7 20 2 1 2.</_></rects>
      <tilted>0</tilted></_>
    <_>
      <rects>
        <_>
          6 0 18 9 -1.</_>
        <_>
          6 3 18 3 3.</_></rects>
      <tilted>0</tilted></_>
    <_>
      <rects>
        <_>
          6 1 8 6 -1.</_>
        <_>
          6 3 8 2 3.</_></rects>
      <tilted>0</tilted></_>
    <_>
      <rects>
        <_>
          6 3 2 4 -1.</_>
        <_>
          7 3 1 4 2.</_></rects>
      <tilted>0</tilted></_>
    <_>
      <rects>
        <_>
          6 4 3 13 -1.</_>
        <_>
          7 4 1 13 3.</_></rects>
      <tilted>0</tilted></_>
    <_>
      <rects>
        <_>
          6 4 6 6 -1.</_>
        <_>
          6 4 3 3 2.</_>
        <_>
          9 7 3 3 2.</_></rects>
      <tilted>0</tilted></_>
    <_>
      <rects>
        <_>
          6 4 6 12 -1.</_>
        <_>
          6 10 6 6 2.</_></rects>
      <tilted>0</tilted></_>
    <_>
      <rects>
        <_>
          6 7 7 15 -1.</_>
        <_>
          6 12 7 5 3.</_></rects>
      <tilted>0</tilted></_>
    <_>
      <rects>
        <_>
          6 8 12 3 -1.</_>
        <_>
          6 9 12 1 3.</_></rects>
      <tilted>0</tilted></_>
    <_>
      <rects>
        <_>
          6 9 2 4 -1.</_>
        <_>
          6 9 1 2 2.</_>
        <_>
          7 11 1 2 2.</_></rects>
      <tilted>0</tilted></_>
    <_>
      <rects>
        <_>
          6 10 2 2 -1.</_>
        <_>
          6 10 1 1 2.</_>
        <_>
          7 11 1 1 2.</_></rects>
      <tilted>0</tilted></_>
    <_>
      <rects>
        <_>
          6 10 2 4 -1.</_>
        <_>
          6 10 1 2 2.</_>
        <_>
          7 12 1 2 2.</_></rects>
      <tilted>0</tilted></_>
    <_>
      <rects>
        <_>
          6 11 8 8 -1.</_>
        <_>
          6 11 4 4 2.</_>
        <_>
          10 15 4 4 2.</_></rects>
      <tilted>0</tilted></_>
    <_>
      <rects>
        <_>
          6 11 6 2 -1.</_>
        <_>
          6 12 6 1 2.</_></rects>
      <tilted>0</tilted></_>
    <_>
      <rects>
        <_>
          6 12 6 6 -1.</_>
        <_>
          8 12 2 6 3.</_></rects>
      <tilted>0</tilted></_>
    <_>
      <rects>
        <_>
          6 15 6 2 -1.</_>
        <_>
          6 15 3 1 2.</_>
        <_>
          9 16 3 1 2.</_></rects>
      <tilted>0</tilted></_>
    <_>
      <rects>
        <_>
          6 15 14 3 -1.</_>
        <_>
          6 16 14 1 3.</_></rects>
      <tilted>0</tilted></_>
    <_>
      <rects>
        <_>
          6 16 2 2 -1.</_>
        <_>
          6 16 1 1 2.</_>
        <_>
          7 17 1 1 2.</_></rects>
      <tilted>0</tilted></_>
    <_>
      <rects>
        <_>
          6 16 3 2 -1.</_>
        <_>
          7 16 1 2 3.</_></rects>
      <tilted>0</tilted></_>
    <_>
      <rects>
        <_>
          6 16 9 1 -1.</_>
        <_>
          9 16 3 1 3.</_></rects>
      <tilted>0</tilted></_>
    <_>
      <rects>
        <_>
          6 21 1 2 -1.</_>
        <_>
          6 22 1 1 2.</_></rects>
      <tilted>0</tilted></_>
    <_>
      <rects>
        <_>
          7 0 15 1 -1.</_>
        <_>
          12 0 5 1 3.</_></rects>
      <tilted>0</tilted></_>
    <_>
      <rects>
        <_>
          7 3 9 3 -1.</_>
        <_>
          7 4 9 1 3.</_></rects>
      <tilted>0</tilted></_>
    <_>
      <rects>
        <_>
          7 4 1 4 -1.</_>
        <_>
          7 6 1 2 2.</_></rects>
      <tilted>0</tilted></_>
    <_>
      <rects>
        <_>
          7 4 9 2 -1.</_>
        <_>
          10 4 3 2 3.</_></rects>
      <tilted>0</tilted></_>
    <_>
      <rects>
        <_>
          7 4 6 4 -1.</_>
        <_>
          10 4 3 4 2.</_></rects>
      <tilted>0</tilted></_>
    <_>
      <rects>
        <_>
          7 4 12 6 -1.</_>
        <_>
          11 4 4 6 3.</_></rects>
      <tilted>0</tilted></_>
    <_>
      <rects>
        <_>
          7 10 2 3 -1.</_>
        <_>
          7 11 2 1 3.</_></rects>
      <tilted>0</tilted></_>
    <_>
      <rects>
        <_>
          7 11 7 3 -1.</_>
        <_>
          7 12 7 1 3.</_></rects>
      <tilted>0</tilted></_>
    <_>
      <rects>
        <_>
          7 13 10 3 -1.</_>
        <_>
          7 14 10 1 3.</_></rects>
      <tilted>0</tilted></_>
    <_>
      <rects>
        <_>
          7 16 2 2 -1.</_>
        <_>
          7 16 1 1 2.</_>
        <_>
          8 17 1 1 2.</_></rects>
      <tilted>0</tilted></_>
    <_>
      <rects>
        <_>
          7 17 3 1 -1.</_>
        <_>
          8 17 1 1 3.</_></rects>
      <tilted>0</tilted></_>
    <_>
      <rects>
        <_>
          7 19 12 2 -1.</_>
        <_>
          11 19 4 2 3.</_></rects>
      <tilted>0</tilted></_>
    <_>
      <rects>
        <_>
          7 20 9 1 -1.</_>
        <_>
          10 20 3 1 3.</_></rects>
      <tilted>0</tilted></_>
    <_>
      <rects>
        <_>
          7 20 12 1 -1.</_>
        <_>
          11 20 4 1 3.</_></rects>
      <tilted>0</tilted></_>
    <_>
      <rects>
        <_>
          7 23 6 1 -1.</_>
        <_>
          9 23 2 1 3.</_></rects>
      <tilted>0</tilted></_>
    <_>
      <rects>
        <_>
          8 1 7 3 -1.</_>
        <_>
          8 2 7 1 3.</_></rects>
      <tilted>0</tilted></_>
    <_>
      <rects>
        <_>
          8 2 3 3 -1.</_>
        <_>
          8 3 3 1 3.</_></rects>
      <tilted>0</tilted></_>
    <_>
      <rects>
        <_>
          8 2 6 3 -1.</_>
        <_>
          8 3 6 1 3.</_></rects>
      <tilted>0</tilted></_>
    <_>
      <rects>
        <_>
          8 4 4 2 -1.</_>
        <_>
          8 4 2 1 2.</_>
        <_>
          10 5 2 1 2.</_></rects>
      <tilted>0</tilted></_>
    <_>
      <rects>
        <_>
          8 5 5 3 -1.</_>
        <_>
          8 6 5 1 3.</_></rects>
      <tilted>0</tilted></_>
    <_>
      <rects>
        <_>
          8 9 15 3 -1.</_>
        <_>
          8 10 15 1 3.</_></rects>
      <tilted>0</tilted></_>
    <_>
      <rects>
        <_>
          8 10 3 3 -1.</_>
        <_>
          8 11 3 1 3.</_></rects>
      <tilted>0</tilted></_>
    <_>
      <rects>
        <_>
          8 11 10 3 -1.</_>
        <_>
          8 12 10 1 3.</_></rects>
      <tilted>0</tilted></_>
    <_>
      <rects>
        <_>
          8 11 12 3 -1.</_>
        <_>
          8 12 12 1 3.</_></rects>
      <tilted>0</tilted></_>
    <_>
      <rects>
        <_>
          8 13 1 8 -1.</_>
        <_>
          8 17 1 4 2.</_></rects>
      <tilted>0</tilted></_>
    <_>
      <rects>
        <_>
          8 18 2 2 -1.</_>
        <_>
          8 18 1 1 2.</_>
        <_>
          9 19 1 1 2.</_></rects>
      <tilted>0</tilted></_>
    <_>
      <rects>
        <_>
          8 21 2 1 -1.</_>
        <_>
          9 21 1 1 2.</_></rects>
      <tilted>0</tilted></_>
    <_>
      <rects>
        <_>
          9 1 2 2 -1.</_>
        <_>
          9 1 1 1 2.</_>
        <_>
          10 2 1 1 2.</_></rects>
      <tilted>0</tilted></_>
    <_>
      <rects>
        <_>
          9 2 6 3 -1.</_>
        <_>
          12 2 3 3 2.</_></rects>
      <tilted>0</tilted></_>
    <_>
      <rects>
        <_>
          9 2 6 3 -1.</_>
        <_>
          9 3 6 1 3.</_></rects>
      <tilted>0</tilted></_>
    <_>
      <rects>
        <_>
          9 3 12 13 -1.</_>
        <_>
          13 3 4 13 3.</_></rects>
      <tilted>0</tilted></_>
    <_>
      <rects>
        <_>
          9 3 6 3 -1.</_>
        <_>
          9 4 6 1 3.</_></rects>
      <tilted>0</tilted></_>
    <_>
      <rects>
        <_>
          9 3 7 2 -1.</_>
        <_>
          9 4 7 1 2.</_></rects>
      <tilted>0</tilted></_>
    <_>
      <rects>
        <_>
          9 4 6 1 -1.</_>
        <_>
          11 4 2 1 3.</_></rects>
      <tilted>0</tilted></_>
    <_>
      <rects>
        <_>
          9 4 6 2 -1.</_>
        <_>
          11 4 2 2 3.</_></rects>
      <tilted>0</tilted></_>
    <_>
      <rects>
        <_>
          9 10 1 3 -1.</_>
        <_>
          9 11 1 1 3.</_></rects>
      <tilted>0</tilted></_>
    <_>
      <rects>
        <_>
          9 15 7 3 -1.</_>
        <_>
          9 16 7 1 3.</_></rects>
      <tilted>0</tilted></_>
    <_>
      <rects>
        <_>
          9 15 8 3 -1.</_>
        <_>
          9 16 8 1 3.</_></rects>
      <tilted>0</tilted></_>
    <_>
      <rects>
        <_>
          9 20 6 2 -1.</_>
        <_>
          9 20 3 1 2.</_>
        <_>
          12 21 3 1 2.</_></rects>
      <tilted>0</tilted></_>
    <_>
      <rects>
        <_>
          9 23 2 1 -1.</_>
        <_>
          10 23 1 1 2.</_></rects>
      <tilted>0</tilted></_>
    <_>
      <rects>
        <_>
          9 23 3 1 -1.</_>
        <_>
          10 23 1 1 3.</_></rects>
      <tilted>0</tilted></_>
    <_>
      <rects>
        <_>
          10 1 4 2 -1.</_>
        <_>
          10 1 2 1 2.</_>
        <_>
          12 2 2 1 2.</_></rects>
      <tilted>0</tilted></_>
    <_>
      <rects>
        <_>
          10 1 6 4 -1.</_>
        <_>
          10 3 6 2 2.</_></rects>
      <tilted>0</tilted></_>
    <_>
      <rects>
        <_>
          10 1 8 3 -1.</_>
        <_>
          10 2 8 1 3.</_></rects>
      <tilted>0</tilted></_>
    <_>
      <rects>
        <_>
          10 2 3 4 -1.</_>
        <_>
          11 2 1 4 3.</_></rects>
      <tilted>0</tilted></_>
    <_>
      <rects>
        <_>
          10 3 12 14 -1.</_>
        <_>
          10 3 6 7 2.</_>
        <_>
          16 10 6 7 2.</_></rects>
      <tilted>0</tilted></_>
    <_>
      <rects>
        <_>
          10 5 8 13 -1.</_>
        <_>
          14 5 4 13 2.</_></rects>
      <tilted>0</tilted></_>
    <_>
      <rects>
        <_>
          10 9 6 14 -1.</_>
        <_>
          10 9 3 7 2.</_>
        <_>
          13 16 3 7 2.</_></rects>
      <tilted>0</tilted></_>
    <_>
      <rects>
        <_>
          10 11 9 3 -1.</_>
        <_>
          10 12 9 1 3.</_></rects>
      <tilted>0</tilted></_>
    <_>
      <rects>
        <_>
          10 13 12 6 -1.</_>
        <_>
          14 13 4 6 3.</_></rects>
      <tilted>0</tilted></_>
    <_>
      <rects>
        <_>
          10 13 6 6 -1.</_>
        <_>
          10 15 6 2 3.</_></rects>
      <tilted>0</tilted></_>
    <_>
      <rects>
        <_>
          10 13 7 3 -1.</_>
        <_>
          10 14 7 1 3.</_></rects>
      <tilted>0</tilted></_>
    <_>
      <rects>
        <_>
          10 14 8 3 -1.</_>
        <_>
          10 15 8 1 3.</_></rects>
      <tilted>0</tilted></_>
    <_>
      <rects>
        <_>
          10 16 4 2 -1.</_>
        <_>
          10 16 2 1 2.</_>
        <_>
          12 17 2 1 2.</_></rects>
      <tilted>0</tilted></_>
    <_>
      <rects>
        <_>
          10 17 3 3 -1.</_>
        <_>
          10 18 3 1 3.</_></rects>
      <tilted>0</tilted></_>
    <_>
      <rects>
        <_>
          10 17 5 3 -1.</_>
        <_>
          10 18 5 1 3.</_></rects>
      <tilted>0</tilted></_>
    <_>
      <rects>
        <_>
          10 20 6 3 -1.</_>
        <_>
          10 21 6 1 3.</_></rects>
      <tilted>0</tilted></_>
    <_>
      <rects>
        <_>
          10 22 3 2 -1.</_>
        <_>
          11 22 1 2 3.</_></rects>
      <tilted>0</tilted></_>
    <_>
      <rects>
        <_>
          10 22 3 2 -1.</_>
        <_>
          10 23 3 1 2.</_></rects>
      <tilted>0</tilted></_>
    <_>
      <rects>
        <_>
          11 0 3 3 -1.</_>
        <_>
          11 1 3 1 3.</_></rects>
      <tilted>0</tilted></_>
    <_>
      <rects>
        <_>
          11 1 2 2 -1.</_>
        <_>
          11 1 1 1 2.</_>
        <_>
          12 2 1 1 2.</_></rects>
      <tilted>0</tilted></_>
    <_>
      <rects>
        <_>
          11 2 4 2 -1.</_>
        <_>
          11 2 2 1 2.</_>
        <_>
          13 3 2 1 2.</_></rects>
      <tilted>0</tilted></_>
    <_>
      <rects>
        <_>
          11 3 2 3 -1.</_>
        <_>
          11 4 2 1 3.</_></rects>
      <tilted>0</tilted></_>
    <_>
      <rects>
        <_>
          11 3 4 2 -1.</_>
        <_>
          11 3 2 1 2.</_>
        <_>
          13 4 2 1 2.</_></rects>
      <tilted>0</tilted></_>
    <_>
      <rects>
        <_>
          11 3 4 4 -1.</_>
        <_>
          11 3 2 2 2.</_>
        <_>
          13 5 2 2 2.</_></rects>
      <tilted>0</tilted></_>
    <_>
      <rects>
        <_>
          11 3 7 18 -1.</_>
        <_>
          11 9 7 6 3.</_></rects>
      <tilted>0</tilted></_>
    <_>
      <rects>
        <_>
          11 4 2 2 -1.</_>
        <_>
          11 4 1 1 2.</_>
        <_>
          12 5 1 1 2.</_></rects>
      <tilted>0</tilted></_>
    <_>
      <rects>
        <_>
          11 9 12 2 -1.</_>
        <_>
          15 9 4 2 3.</_></rects>
      <tilted>0</tilted></_>
    <_>
      <rects>
        <_>
          11 9 8 9 -1.</_>
        <_>
          11 12 8 3 3.</_></rects>
      <tilted>0</tilted></_>
    <_>
      <rects>
        <_>
          11 10 12 5 -1.</_>
        <_>
          15 10 4 5 3.</_></rects>
      <tilted>0</tilted></_>
    <_>
      <rects>
        <_>
          11 10 9 3 -1.</_>
        <_>
          11 11 9 1 3.</_></rects>
      <tilted>0</tilted></_>
    <_>
      <rects>
        <_>
          11 11 6 3 -1.</_>
        <_>
          11 12 6 1 3.</_></rects>
      <tilted>0</tilted></_>
    <_>
      <rects>
        <_>
          11 14 6 2 -1.</_>
        <_>
          11 15 6 1 2.</_></rects>
      <tilted>0</tilted></_>
    <_>
      <rects>
        <_>
          11 17 3 2 -1.</_>
        <_>
          12 17 1 2 3.</_></rects>
      <tilted>0</tilted></_>
    <_>
      <rects>
        <_>
          11 17 6 2 -1.</_>
        <_>
          11 17 3 1 2.</_>
        <_>
          14 18 3 1 2.</_></rects>
      <tilted>0</tilted></_>
    <_>
      <rects>
        <_>
          11 19 1 4 -1.</_>
        <_>
          11 21 1 2 2.</_></rects>
      <tilted>0</tilted></_>
    <_>
      <rects>
        <_>
          11 20 2 4 -1.</_>
        <_>
          11 22 2 2 2.</_></rects>
      <tilted>0</tilted></_>
    <_>
      <rects>
        <_>
          11 22 4 2 -1.</_>
        <_>
          11 23 4 1 2.</_></rects>
      <tilted>0</tilted></_>
    <_>
      <rects>
        <_>
          11 23 3 1 -1.</_>
        <_>
          12 23 1 1 3.</_></rects>
      <tilted>0</tilted></_>
    <_>
      <rects>
        <_>
          12 1 1 4 -1.</_>
        <_>
          12 3 1 2 2.</_></rects>
      <tilted>0</tilted></_>
    <_>
      <rects>
        <_>
          12 2 4 12 -1.</_>
        <_>
          12 6 4 4 3.</_></rects>
      <tilted>0</tilted></_>
    <_>
      <rects>
        <_>
          12 3 4 4 -1.</_>
        <_>
          14 3 2 4 2.</_></rects>
      <tilted>0</tilted></_>
    <_>
      <rects>
        <_>
          12 9 8 3 -1.</_>
        <_>
          12 10 8 1 3.</_></rects>
      <tilted>0</tilted></_>
    <_>
      <rects>
        <_>
          12 10 1 3 -1.</_>
        <_>
          12 11 1 1 3.</_></rects>
      <tilted>0</tilted></_>
    <_>
      <rects>
        <_>
          12 12 8 6 -1.</_>
        <_>
          12 12 4 3 2.</_>
        <_>
          16 15 4 3 2.</_></rects>
      <tilted>0</tilted></_>
    <_>
      <rects>
        <_>
          12 13 4 4 -1.</_>
        <_>
          12 15 4 2 2.</_></rects>
      <tilted>0</tilted></_>
    <_>
      <rects>
        <_>
          12 13 6 3 -1.</_>
        <_>
          12 14 6 1 3.</_></rects>
      <tilted>0</tilted></_>
    <_>
      <rects>
        <_>
          13 3 2 4 -1.</_>
        <_>
          13 3 1 2 2.</_>
        <_>
          14 5 1 2 2.</_></rects>
      <tilted>0</tilted></_>
    <_>
      <rects>
        <_>
          13 10 4 3 -1.</_>
        <_>
          13 11 4 1 3.</_></rects>
      <tilted>0</tilted></_>
    <_>
      <rects>
        <_>
          13 12 1 3 -1.</_>
        <_>
          13 13 1 1 3.</_></rects>
      <tilted>0</tilted></_>
    <_>
      <rects>
        <_>
          13 12 4 3 -1.</_>
        <_>
          13 13 4 1 3.</_></rects>
      <tilted>0</tilted></_>
    <_>
      <rects>
        <_>
          13 13 2 3 -1.</_>
        <_>
          13 14 2 1 3.</_></rects>
      <tilted>0</tilted></_>
    <_>
      <rects>
        <_>
          13 16 6 3 -1.</_>
        <_>
          13 17 6 1 3.</_></rects>
      <tilted>0</tilted></_>
    <_>
      <rects>
        <_>
          14 6 4 2 -1.</_>
        <_>
          14 6 2 1 2.</_>
        <_>
          16 7 2 1 2.</_></rects>
      <tilted>0</tilted></_>
    <_>
      <rects>
        <_>
          14 10 6 7 -1.</_>
        <_>
          16 10 2 7 3.</_></rects>
      <tilted>0</tilted></_>
    <_>
      <rects>
        <_>
          14 11 6 2 -1.</_>
        <_>
          16 11 2 2 3.</_></rects>
      <tilted>0</tilted></_>
    <_>
      <rects>
        <_>
          14 11 4 3 -1.</_>
        <_>
          14 12 4 1 3.</_></rects>
      <tilted>0</tilted></_>
    <_>
      <rects>
        <_>
          14 14 6 4 -1.</_>
        <_>
          14 14 3 2 2.</_>
        <_>
          17 16 3 2 2.</_></rects>
      <tilted>0</tilted></_>
    <_>
      <rects>
        <_>
          14 14 9 3 -1.</_>
        <_>
          14 15 9 1 3.</_></rects>
      <tilted>0</tilted></_>
    <_>
      <rects>
        <_>
          14 17 2 2 -1.</_>
        <_>
          14 17 1 1 2.</_>
        <_>
          15 18 1 1 2.</_></rects>
      <tilted>0</tilted></_>
    <_>
      <rects>
        <_>
          14 18 3 1 -1.</_>
        <_>
          15 18 1 1 3.</_></rects>
      <tilted>0</tilted></_>
    <_>
      <rects>
        <_>
          14 19 2 2 -1.</_>
        <_>
          14 19 1 1 2.</_>
        <_>
          15 20 1 1 2.</_></rects>
      <tilted>0</tilted></_>
    <_>
      <rects>
        <_>
          14 19 10 4 -1.</_>
        <_>
          19 19 5 4 2.</_></rects>
      <tilted>0</tilted></_>
    <_>
      <rects>
        <_>
          14 20 10 4 -1.</_>
        <_>
          19 20 5 4 2.</_></rects>
      <tilted>0</tilted></_>
    <_>
      <rects>
        <_>
          14 21 4 1 -1.</_>
        <_>
          16 21 2 1 2.</_></rects>
      <tilted>0</tilted></_>
    <_>
      <rects>
        <_>
          15 0 6 2 -1.</_>
        <_>
          17 0 2 2 3.</_></rects>
      <tilted>0</tilted></_>
    <_>
      <rects>
        <_>
          15 5 1 3 -1.</_>
        <_>
          15 6 1 1 3.</_></rects>
      <tilted>0</tilted></_>
    <_>
      <rects>
        <_>
          15 7 2 2 -1.</_>
        <_>
          16 7 1 2 2.</_></rects>
      <tilted>0</tilted></_>
    <_>
      <rects>
        <_>
          15 11 2 2 -1.</_>
        <_>
          15 11 1 1 2.</_>
        <_>
          16 12 1 1 2.</_></rects>
      <tilted>0</tilted></_>
    <_>
      <rects>
        <_>
          15 13 2 2 -1.</_>
        <_>
          15 13 1 1 2.</_>
        <_>
          16 14 1 1 2.</_></rects>
      <tilted>0</tilted></_>
    <_>
      <rects>
        <_>
          16 7 1 3 -1.</_>
        <_>
          16 8 1 1 3.</_></rects>
      <tilted>0</tilted></_>
    <_>
      <rects>
        <_>
          16 10 3 6 -1.</_>
        <_>
          17 10 1 6 3.</_></rects>
      <tilted>0</tilted></_>
    <_>
      <rects>
        <_>
          16 12 3 5 -1.</_>
        <_>
          17 12 1 5 3.</_></rects>
      <tilted>0</tilted></_>
    <_>
      <rects>
        <_>
          16 16 4 2 -1.</_>
        <_>
          16 16 2 1 2.</_>
        <_>
          18 17 2 1 2.</_></rects>
      <tilted>0</tilted></_>
    <_>
      <rects>
        <_>
          17 12 2 6 -1.</_>
        <_>
          17 12 1 3 2.</_>
        <_>
          18 15 1 3 2.</_></rects>
      <tilted>0</tilted></_>
    <_>
      <rects>
        <_>
          17 13 3 4 -1.</_>
        <_>
          18 13 1 4 3.</_></rects>
      <tilted>0</tilted></_>
    <_>
      <rects>
        <_>
          17 15 7 9 -1.</_>
        <_>
          17 18 7 3 3.</_></rects>
      <tilted>0</tilted></_>
    <_>
      <rects>
        <_>
          17 22 7 2 -1.</_>
        <_>
          17 23 7 1 2.</_></rects>
      <tilted>0</tilted></_>
    <_>
      <rects>
        <_>
          18 0 4 2 -1.</_>
        <_>
          20 0 2 2 2.</_></rects>
      <tilted>0</tilted></_>
    <_>
      <rects>
        <_>
          18 15 6 4 -1.</_>
        <_>
          18 17 6 2 2.</_></rects>
      <tilted>0</tilted></_>
    <_>
      <rects>
        <_>
          18 17 3 6 -1.</_>
        <_>
          18 19 3 2 3.</_></rects>
      <tilted>0</tilted></_>
    <_>
      <rects>
        <_>
          18 21 2 2 -1.</_>
        <_>
          19 21 1 2 2.</_></rects>
      <tilted>0</tilted></_>
    <_>
      <rects>
        <_>
          18 21 2 3 -1.</_>
        <_>
          19 21 1 3 2.</_></rects>
      <tilted>0</tilted></_>
    <_>
      <rects>
        <_>
          19 21 2 3 -1.</_>
        <_>
          20 21 1 3 2.</_></rects>
      <tilted>0</tilted></_>
    <_>
      <rects>
        <_>
          19 22 1 2 -1.</_>
        <_>
          19 23 1 1 2.</_></rects>
      <tilted>0</tilted></_>
    <_>
      <rects>
        <_>
          20 0 3 20 -1.</_>
        <_>
          21 0 1 20 3.</_></rects>
      <tilted>0</tilted></_>
    <_>
      <rects>
        <_>
          20 13 3 10 -1.</_>
        <_>
          21 13 1 10 3.</_></rects>
      <tilted>0</tilted></_>
    <_>
      <rects>
        <_>
          20 15 3 9 -1.</_>
        <_>
          21 15 1 9 3.</_></rects>
      <tilted>0</tilted></_>
    <_>
      <rects>
        <_>
          20 17 1 2 -1.</_>
        <_>
          20 18 1 1 2.</_></rects>
      <tilted>0</tilted></_>
    <_>
      <rects>
        <_>
          20 18 2 3 -1.</_>
        <_>
          20 19 2 1 3.</_></rects>
      <tilted>0</tilted></_>
    <_>
      <rects>
        <_>
          20 21 4 1 -1.</_>
        <_>
          22 21 2 1 2.</_></rects>
      <tilted>0</tilted></_>
    <_>
      <rects>
        <_>
          20 23 3 1 -1.</_>
        <_>
          21 23 1 1 3.</_></rects>
      <tilted>0</tilted></_>
    <_>
      <rects>
        <_>
          20 23 4 1 -1.</_>
        <_>
          22 23 2 1 2.</_></rects>
      <tilted>0</tilted></_>
    <_>
      <rects>
        <_>
          21 6 1 18 -1.</_>
        <_>
          21 12 1 6 3.</_></rects>
      <tilted>0</tilted></_>
    <_>
      <rects>
        <_>
          21 6 3 9 -1.</_>
        <_>
          21 9 3 3 3.</_></rects>
      <tilted>0</tilted></_>
    <_>
      <rects>
        <_>
          21 12 3 11 -1.</_>
        <_>
          22 12 1 11 3.</_></rects>
      <tilted>0</tilted></_>
    <_>
      <rects>
        <_>
          21 20 2 4 -1.</_>
        <_>
          21 22 2 2 2.</_></rects>
      <tilted>0</tilted></_>
    <_>
      <rects>
        <_>
          21 21 3 3 -1.</_>
        <_>
          22 21 1 3 3.</_></rects>
      <tilted>0</tilted></_>
    <_>
      <rects>
        <_>
          21 22 3 2 -1.</_>
        <_>
          22 22 1 2 3.</_></rects>
      <tilted>0</tilted></_>
    <_>
      <rects>
        <_>
          21 23 2 1 -1.</_>
        <_>
          22 23 1 1 2.</_></rects>
      <tilted>0</tilted></_>
    <_>
      <rects>
        <_>
          22 1 2 22 -1.</_>
        <_>
          23 1 1 22 2.</_></rects>
      <tilted>0</tilted></_>
    <_>
      <rects>
        <_>
          22 2 2 16 -1.</_>
        <_>
          22 2 1 8 2.</_>
        <_>
          23 10 1 8 2.</_></rects>
      <tilted>0</tilted></_>
    <_>
      <rects>
        <_>
          22 3 2 6 -1.</_>
        <_>
          22 3 1 3 2.</_>
        <_>
          23 6 1 3 2.</_></rects>
      <tilted>0</tilted></_>
    <_>
      <rects>
        <_>
          22 7 2 10 -1.</_>
        <_>
          22 7 1 5 2.</_>
        <_>
          23 12 1 5 2.</_></rects>
      <tilted>0</tilted></_>
    <_>
      <rects>
        <_>
          22 10 2 4 -1.</_>
        <_>
          22 10 1 2 2.</_>
        <_>
          23 12 1 2 2.</_></rects>
      <tilted>0</tilted></_>
    <_>
      <rects>
        <_>
          22 10 1 9 -1.</_>
        <_>
          22 13 1 3 3.</_></rects>
      <tilted>0</tilted></_>
    <_>
      <rects>
        <_>
          22 12 2 11 -1.</_>
        <_>
          23 12 1 11 2.</_></rects>
      <tilted>0</tilted></_>
    <_>
      <rects>
        <_>
          22 17 2 1 -1.</_>
        <_>
          23 17 1 1 2.</_></rects>
      <tilted>0</tilted></_>
    <_>
      <rects>
        <_>
          23 6 1 12 -1.</_>
        <_>
          23 10 1 4 3.</_></rects>
      <tilted>0</tilted></_></features></cascade>
</opencv_storage>
